{"learner":{"attributes":{"best_iteration":"5","best_score":"0.6449686957801868","scikit_learn":"{\"_estimator_type\": \"classifier\"}"},"feature_names":[],"feature_types":[],"gradient_booster":{"model":{"cats":{"enc":[],"feature_segments":[],"sorted_idx":[]},"gbtree_model_param":{"num_parallel_tree":"1","num_trees":"26"},"iteration_indptr":[0,1,2,3,4,5,6,7,8,9,10,11,12,13,14,15,16,17,18,19,20,21,22,23,24,25,26],"tree_info":[0,0,0,0,0,0,0,0,0,0,0,0,0,0,0,0,0,0,0,0,0,0,0,0,0,0],"trees":[{"base_weights":[-4.118823E-3,3.7161002E-1,-3.4557533E-1,6.063922E-1,7.263342E-2,-1.3112475E-1,-6.48728E-1,6.3163143E-1,-1.06658734E-1,-5.676632E-1,1.5262337E-1,-7.8440934E-1,-2.5568015E-3,-1.3309952E0,-4.906446E-1,6.618326E-1,-4.0690717E-1,8.025564E-2,-1.088585E0,-1.6966031E-1,4.2024872E-1,-9.443184E-1,8.229028E-2,4.1732583E-2,-1.8192536E-1,-1.4593436E0,-2.671131E-2,-1.4791834E-1,-6.73096E-1,5.9763885E-1,1.160796E0,-1.0316249E-1,3.7075985E-2,-7.0460916E-2,6.0735594E-2,-2.3070179E-2,-1.5169499E0,-2.7327523E-2,-9.7382057E-1,5.0088954E-1,-2.8264663E-1,-1.0787958E0,1.1479686E-2,-6.583081E-2,6.625994E-2,-2.6854473E-1,2.508903E-1,-1.5720508E0,-4.3909412E-2,-2.7654624E-1,1.02300964E-1,-1.3037703E0,-5.3964406E-1,8.0332905E-2,3.649294E-2,4.0397193E-2,1.274896E-1,-1.7969279E-1,-7.6678626E-2,5.0038043E-3,-1.2553993E-1,4.881794E-3,-1.3313065E-1,-4.3375483E-3,6.3396044E-2,4.1883327E-2,-1.0440766E-1,-6.605731E-2,-1.6232042E-1,1.264784E-2,-5.497674E-2,-5.279311E-2,3.156991E-2,-6.7894615E-2,-1.7182066E-1,-9.895319E-3,-1.3907956E-1,-6.484466E-2,-1.8021916E-1,-8.17293E-2,-1.3512961E-2],"categories":[],"categories_nodes":[],"categories_segments":[],"categories_sizes":[],"default_left":[0,0,0,0,0,0,0,0,0,0,0,0,0,0,0,0,0,0,0,0,0,0,0,0,0,0,0,0,0,0,0,0,0,0,0,0,0,0,0,0,0,0,0,0,0,0,0,0,0,0,0,0,0,0,0,0,0,0,0,0,0,0,0,0,0,0,0,0,0,0,0,0,0,0,0,0,0,0,0,0,0],"id":0,"left_children":[1,3,5,7,9,11,13,15,-1,17,19,21,23,25,27,29,31,33,35,37,39,41,43,45,-1,47,-1,49,51,53,55,-1,-1,-1,-1,-1,57,59,61,63,65,67,-1,-1,-1,69,71,73,-1,75,-1,77,79,-1,-1,-1,-1,-1,-1,-1,-1,-1,-1,-1,-1,-1,-1,-1,-1,-1,-1,-1,-1,-1,-1,-1,-1,-1,-1,-1,-1],"loss_changes":[1.20695816E2,3.1319752E1,3.1887894E1,1.1207214E1,1.0200852E1,2.4293022E1,2.1147057E1,8.056335E0,0E0,7.645056E0,1.5379527E1,6.759302E0,1.9854198E1,4.576874E0,1.0271961E1,6.8477936E0,4.1012425E0,4.8416286E0,4.0325413E0,9.136464E0,5.6764584E0,5.9676285E0,3.9758205E0,1.5558513E1,0E0,2.9352112E0,0E0,9.177368E0,8.25449E0,9.915382E0,1.5817719E0,0E0,0E0,0E0,0E0,0E0,4.8952103E-2,6.8241E0,4.593259E0,6.441271E0,6.1198287E0,6.8929825E0,0E0,0E0,0E0,1.0822979E1,7.3790483E0,2.4433212E0,0E0,1.05020275E1,0E0,4.5093327E0,1.0069969E1,0E0,0E0,0E0,0E0,0E0,0E0,0E0,0E0,0E0,0E0,0E0,0E0,0E0,0E0,0E0,0E0,0E0,0E0,0E0,0E0,0E0,0E0,0E0,0E0,0E0,0E0,0E0,0E0],"parents":[2147483647,0,0,1,1,2,2,3,3,4,4,5,5,6,6,7,7,9,9,10,10,11,11,12,12,13,13,14,14,15,15,16,16,17,17,18,18,19,19,20,20,21,21,22,22,23,23,25,25,27,27,28,28,29,29,30,30,36,36,37,37,38,38,39,39,40,40,41,41,45,45,46,46,47,47,49,49,51,51,52,52],"right_children":[2,4,6,8,10,12,14,16,-1,18,20,22,24,26,28,30,32,34,36,38,40,42,44,46,-1,48,-1,50,52,54,56,-1,-1,-1,-1,-1,58,60,62,64,66,68,-1,-1,-1,70,72,74,-1,76,-1,78,80,-1,-1,-1,-1,-1,-1,-1,-1,-1,-1,-1,-1,-1,-1,-1,-1,-1,-1,-1,-1,-1,-1,-1,-1,-1,-1,-1,-1],"split_conditions":[-3.463283E-1,-4.078921E-1,4.4348577E-1,1.0612304E0,-9.368188E-1,-1.0473096E0,-1.1209575E0,3.1414706E-2,-1.06658734E-1,-1.9932352E-1,-1.7995083E-1,2.7758174E-2,1.8490869E0,6.73147E-1,9.454027E-2,-3.664185E-1,-4.59744E-1,-4.8537937E-1,-1.9351606E-1,3.9493136E-2,1.2756052E0,1.0290936E0,3.3484447E-1,-2.082752E-1,-1.8192536E-1,3.25665E0,-2.671131E-2,2.9602712E-2,2.5105643E-1,-3.2010606E-1,-8.805079E-1,-1.0316249E-1,3.7075985E-2,-7.0460916E-2,6.0735594E-2,-2.3070179E-2,-1.6734163E-1,5.429006E-1,-2.3318477E-1,-5.828909E-1,-1.24878794E-1,2.9737318E-1,1.1479686E-2,-6.583081E-2,6.625994E-2,1.9779576E-2,-2.6998725E-3,6.4825237E-1,-4.3909412E-2,1.3865197E0,1.02300964E-1,5.7171947E-1,3.236623E-2,8.0332905E-2,3.649294E-2,4.0397193E-2,1.274896E-1,-1.7969279E-1,-7.6678626E-2,5.0038043E-3,-1.2553993E-1,4.881794E-3,-1.3313065E-1,-4.3375483E-3,6.3396044E-2,4.1883327E-2,-1.0440766E-1,-6.605731E-2,-1.6232042E-1,1.264784E-2,-5.497674E-2,-5.279311E-2,3.156991E-2,-6.7894615E-2,-1.7182066E-1,-9.895319E-3,-1.3907956E-1,-6.484466E-2,-1.8021916E-1,-8.17293E-2,-1.3512961E-2],"split_indices":[27,4,27,45,20,50,19,62,0,29,50,62,20,42,19,11,50,16,19,62,20,5,10,5,0,38,0,19,19,28,20,0,0,0,0,0,59,11,52,5,28,44,0,0,0,62,62,27,0,36,0,20,29,0,0,0,0,0,0,0,0,0,0,0,0,0,0,0,0,0,0,0,0,0,0,0,0,0,0,0,0],"split_type":[0,0,0,0,0,0,0,0,0,0,0,0,0,0,0,0,0,0,0,0,0,0,0,0,0,0,0,0,0,0,0,0,0,0,0,0,0,0,0,0,0,0,0,0,0,0,0,0,0,0,0,0,0,0,0,0,0,0,0,0,0,0,0,0,0,0,0,0,0,0,0,0,0,0,0,0,0,0,0,0,0],"sum_hessian":[9.387868E2,4.467809E2,4.920059E2,2.49494E2,1.9728691E2,2.8919287E2,2.0281302E2,2.4645807E2,3.0359323E0,2.1093407E1,1.7619351E2,4.658819E1,2.4260469E2,3.6637638E1,1.6617538E2,2.3993953E2,6.5185313E0,9.692238E0,1.1401168E1,7.993065E1,9.6262856E1,3.935321E1,7.2349806E0,2.37731E2,4.8736787E0,3.2277874E1,4.3597627E0,5.8550285E1,1.0762511E2,2.1471387E2,2.5225664E1,3.5049503E0,3.0135813E0,3.6824706E0,6.0097675E0,4.3871217E0,7.014046E0,6.88949E1,1.1035755E1,8.6741005E1,9.521847E0,3.4986732E1,4.366477E0,3.0437608E0,4.19122E0,9.5418846E1,1.4231216E2,2.8491539E1,3.786335E0,5.3520245E1,5.0300393E0,1.7133898E1,9.04912E1,1.12443794E2,1.0227007E2,4.0144906E0,2.1211172E1,3.9945166E0,3.0195296E0,6.56377E1,3.2571914E0,3.009726E0,8.02603E0,1.7026114E1,6.97149E1,5.1218576E0,4.3999887E0,2.1142109E1,1.3844622E1,3.97617E1,5.5657143E1,1.0265108E1,1.3204706E2,4.897043E0,2.3594496E1,4.7179207E1,6.3410373E0,8.48261E0,8.651289E0,5.2908474E1,3.7582733E1],"tree_param":{"num_deleted":"0","num_feature":"64","num_nodes":"81","size_leaf_vector":"1"}},{"base_weights":[-2.9983642E-3,3.3025187E-1,-3.0462947E-1,5.681821E-1,9.15438E-2,-8.564111E-1,-2.0428377E-1,-8.2018554E-2,6.0129446E-1,-2.0779534E-1,2.3889771E-1,-6.7287135E-1,-1.4932562E0,-1.6177408E-1,-1.4074513E0,8.001078E-1,4.307164E-1,-3.7159142E-1,4.2286912E-1,3.074647E-1,-6.000618E-1,-8.670272E-1,9.4260715E-2,-1.8239434E-1,-8.193033E-1,1.0174392E-2,-3.807574E-1,-1.7550405E0,-5.664959E-2,4.47988E-1,9.867082E-1,6.858751E-1,1.0386721E-1,1.7221013E-1,-5.2332157E-1,9.633018E-2,7.241202E-3,-1.0859699E-1,4.4576234E-1,-8.6373895E-1,9.99142E-3,-1.1299772E-1,-1.0373071E0,-3.2855652E-2,-1.0863238E-1,-2.9158854E-1,2.630271E-1,-7.4059653E-1,-2.4150069E-1,-8.563276E-2,-2.0424016E-1,6.6009946E-2,-2.08269E-2,1.0322682E-1,1.4207724E-2,8.843809E-2,4.8187032E-2,6.2078107E-2,-2.0452928E-2,6.286057E-2,-5.1719654E-2,4.231179E-2,-6.6417366E-2,3.753635E-2,-4.513077E-2,-4.7219556E-2,4.3801162E-2,4.8673104E-2,-6.618659E-2,-3.449074E-2,-1.3522601E-1,-8.058112E-2,2.5137002E-2,-1.21028565E-1,-3.0830456E-2,-5.1839273E-2,2.2630846E-2,-1.3127221E-3,5.5760022E-2,4.3818228E-2,-8.296846E-2,3.4074552E-2,-3.3158764E-2],"categories":[],"categories_nodes":[],"categories_segments":[],"categories_sizes":[],"default_left":[0,0,0,0,0,0,0,0,0,0,0,0,0,0,0,0,0,0,0,0,0,0,0,0,0,0,0,0,0,0,0,0,0,0,0,0,0,0,0,0,0,0,0,0,0,0,0,0,0,0,0,0,0,0,0,0,0,0,0,0,0,0,0,0,0,0,0,0,0,0,0,0,0,0,0,0,0,0,0,0,0,0,0],"id":1,"left_children":[1,3,5,7,9,11,13,-1,15,17,19,21,23,25,27,29,31,33,35,37,39,41,-1,-1,43,45,47,49,-1,51,53,55,57,59,61,-1,63,65,67,69,-1,71,73,-1,-1,75,77,79,81,-1,-1,-1,-1,-1,-1,-1,-1,-1,-1,-1,-1,-1,-1,-1,-1,-1,-1,-1,-1,-1,-1,-1,-1,-1,-1,-1,-1,-1,-1,-1,-1,-1,-1],"loss_changes":[9.534468E1,2.5468704E1,2.7295418E1,1.0824989E1,1.0033938E1,7.6819115E0,2.1244074E1,0E0,7.014168E0,7.8951387E0,8.917907E0,1.9965025E1,1.8292694E0,1.54661255E1,2.9305E0,6.014023E0,9.955797E0,5.0892153E0,3.4440584E0,8.229299E0,2.3290572E0,6.8417587E0,0E0,0E0,4.469409E-1,1.7637781E1,8.76613E0,4.1490936E-1,0E0,5.3062572E0,2.2230644E0,2.1788769E0,8.852831E0,4.6571817E0,6.62774E0,0E0,1.8567857E0,7.35452E0,5.1439323E0,1.5774374E0,0E0,3.130828E0,5.1136284E0,0E0,0E0,1.2508081E1,1.0307628E1,5.618723E0,7.0252194E0,0E0,0E0,0E0,0E0,0E0,0E0,0E0,0E0,0E0,0E0,0E0,0E0,0E0,0E0,0E0,0E0,0E0,0E0,0E0,0E0,0E0,0E0,0E0,0E0,0E0,0E0,0E0,0E0,0E0,0E0,0E0,0E0,0E0,0E0],"parents":[2147483647,0,0,1,1,2,2,3,3,4,4,5,5,6,6,8,8,9,9,10,10,11,11,12,12,13,13,14,14,15,15,16,16,17,17,18,18,19,19,20,20,21,21,24,24,25,25,26,26,27,27,29,29,30,30,31,31,32,32,33,33,34,34,36,36,37,37,38,38,39,39,41,41,42,42,45,45,46,46,47,47,48,48],"right_children":[2,4,6,8,10,12,14,-1,16,18,20,22,24,26,28,30,32,34,36,38,40,42,-1,-1,44,46,48,50,-1,52,54,56,58,60,62,-1,64,66,68,70,-1,72,74,-1,-1,76,78,80,82,-1,-1,-1,-1,-1,-1,-1,-1,-1,-1,-1,-1,-1,-1,-1,-1,-1,-1,-1,-1,-1,-1,-1,-1,-1,-1,-1,-1,-1,-1,-1,-1,-1,-1],"split_conditions":[-3.463283E-1,-4.7533822E-1,-1.0566361E0,-2.5479186E0,-5.0966704E-1,1.1996219E0,3.8391848E0,-8.2018554E-2,-7.3892593E-1,-3.5443017E-1,5.429006E-1,8.775616E-1,1.0183961E0,3.803622E-1,-7.846143E-1,-9.540453E-1,-1.4804348E-1,-1.083535E0,-7.040131E-1,-7.1155787E-1,1.1630565E0,-1.6277984E-1,9.4260715E-2,-1.8239434E-1,1.6364895E0,-1.7510416E-1,2.8696257E-1,1.9235823E0,-5.664959E-2,2.7936253E-1,1.157547E0,-2.9695138E-1,-3.5960567E-1,5.366439E-1,-2.834296E-1,9.633018E-2,3.0862328E-1,-4.470624E-2,1.6760106E0,4.5813614E-1,9.99142E-3,-1.2416788E0,1.4641575E0,-3.2855652E-2,-1.0863238E-1,9.808804E-1,4.7526705E-1,-1.0283986E0,-4.1996497E-1,-8.563276E-2,-2.0424016E-1,6.6009946E-2,-2.08269E-2,1.0322682E-1,1.4207724E-2,8.843809E-2,4.8187032E-2,6.2078107E-2,-2.0452928E-2,6.286057E-2,-5.1719654E-2,4.231179E-2,-6.6417366E-2,3.753635E-2,-4.513077E-2,-4.7219556E-2,4.3801162E-2,4.8673104E-2,-6.618659E-2,-3.449074E-2,-1.3522601E-1,-8.058112E-2,2.5137002E-2,-1.21028565E-1,-3.0830456E-2,-5.1839273E-2,2.2630846E-2,-1.3127221E-3,5.5760022E-2,4.3818228E-2,-8.296846E-2,3.4074552E-2,-3.3158764E-2],"split_indices":[27,4,50,19,5,16,5,0,27,7,11,5,39,27,19,50,30,18,14,50,50,30,0,0,16,16,6,15,0,19,37,30,29,48,19,0,41,59,50,59,0,42,60,0,0,44,7,59,19,0,0,0,0,0,0,0,0,0,0,0,0,0,0,0,0,0,0,0,0,0,0,0,0,0,0,0,0,0,0,0,0,0,0],"split_type":[0,0,0,0,0,0,0,0,0,0,0,0,0,0,0,0,0,0,0,0,0,0,0,0,0,0,0,0,0,0,0,0,0,0,0,0,0,0,0,0,0,0,0,0,0,0,0,0,0,0,0,0,0,0,0,0,0,0,0,0,0,0,0,0,0,0,0,0,0,0,0,0,0,0,0,0,0,0,0,0,0,0,0],"sum_hessian":[9.46552E2,4.4950275E2,4.9704922E2,2.242171E2,2.2528566E2,7.517043E1,4.218788E2,4.5989265E0,2.1961818E2,7.395745E1,1.513282E2,6.0071365E1,1.5099067E1,4.0865787E2,1.32209215E1,9.944063E1,1.2017755E2,5.9161415E1,1.4796038E1,1.4059064E2,1.0737564E1,5.4095154E1,5.976211E0,8.884844E0,6.214223E0,2.2919104E2,1.7946683E2,8.501254E0,4.719668E0,3.580755E1,6.363308E1,6.670169E1,5.3475864E1,1.2732834E1,4.642858E1,5.754837E0,9.041201E0,3.4946747E1,1.0564389E2,7.7333574E0,3.0042074E0,1.0380287E1,4.3714867E1,3.107685E0,3.1065376E0,1.0423947E2,1.2495158E2,4.8669247E1,1.3079758E2,3.1082525E0,5.3930016E0,2.7171774E1,8.635773E0,6.0053223E1,3.5798562E0,3.18677E1,3.483399E1,1.9725166E1,3.3750698E1,7.801435E0,4.9313993E0,5.662967E0,4.0765614E1,5.2366867E0,3.804514E0,2.1178263E1,1.3768485E1,1.0250337E2,3.140522E0,4.676949E0,3.056408E0,3.2546914E0,7.125596E0,3.4686943E1,9.0279255E0,7.262619E1,3.1613277E1,6.480995E1,6.0141624E1,3.0655847E0,4.5603664E1,1.7004211E1,1.1379337E2],"tree_param":{"num_deleted":"0","num_feature":"64","num_nodes":"83","size_leaf_vector":"1"}},{"base_weights":[1.2252443E-2,2.6582253E-1,-3.258683E-1,4.705478E-1,9.758978E-3,-8.9787745E-1,-2.2666521E-1,7.7421653E-1,3.6593148E-1,-3.0642772E-1,2.0106016E-1,-1.0392203E0,-2.1678728E-1,-1.8186079E-1,-1.3950808E0,4.7607794E-1,9.32078E-1,-9.448707E-2,3.8866517E-1,-1.1158898E-2,-6.6855305E-1,7.438993E-1,7.856302E-2,-1.1469506E0,-3.1840506E-1,9.008953E-2,-1.1665267E-1,3.038469E-2,-3.6588797E-1,-1.6658002E-1,-5.331408E-2,2.7956963E-1,1.0225441E-1,1.0364783E0,3.5955942E-1,6.446519E-1,2.2901142E-1,1.859219E-1,-6.4418125E-1,-8.517639E-1,2.255797E-1,8.702312E-1,-1.7190833E-2,-4.416004E-1,2.760552E-1,-1.01893945E-2,-1.2379867E0,2.1871468E-2,-7.736988E-2,-1.5199265E-1,5.4760444E-1,-2.0660508E-1,-6.65481E-1,8.039425E-2,-0E0,1.1342603E-1,3.0538872E-2,8.939751E-2,-3.0553475E-2,-4.3662167E-3,6.989582E-2,-4.09412E-2,3.3219684E-2,7.5312465E-2,-1.00388955E-2,-9.8353356E-2,2.9024271E-2,1.7606289E-3,-1.0533484E-1,7.065948E-2,-2.5651906E-2,3.0611068E-2,1.0562333E-1,9.729269E-4,-7.660524E-2,8.078699E-2,1.1279678E-2,-1.4335768E-1,-6.208992E-2,9.4853185E-2,-2.1871405E-2,7.814847E-4,7.054888E-2,-4.291995E-2,2.235659E-2,-9.880723E-2,-3.3410802E-2],"categories":[],"categories_nodes":[],"categories_segments":[],"categories_sizes":[],"default_left":[0,0,0,0,0,0,0,0,0,0,0,0,0,0,0,0,0,0,0,0,0,0,0,0,0,0,0,0,0,0,0,0,0,0,0,0,0,0,0,0,0,0,0,0,0,0,0,0,0,0,0,0,0,0,0,0,0,0,0,0,0,0,0,0,0,0,0,0,0,0,0,0,0,0,0,0,0,0,0,0,0,0,0,0,0,0,0],"id":2,"left_children":[1,3,5,7,9,11,13,15,17,19,21,23,25,27,29,31,33,-1,35,37,39,41,43,45,47,-1,-1,49,51,-1,-1,53,-1,55,57,59,61,63,65,67,69,71,-1,73,75,-1,77,-1,-1,79,81,83,85,-1,-1,-1,-1,-1,-1,-1,-1,-1,-1,-1,-1,-1,-1,-1,-1,-1,-1,-1,-1,-1,-1,-1,-1,-1,-1,-1,-1,-1,-1,-1,-1,-1,-1],"loss_changes":[8.0468636E1,2.8072895E1,2.2500881E1,9.066788E0,1.4544207E1,5.323246E0,1.7605032E1,2.9543457E0,6.978155E0,9.603469E0,9.839521E0,3.248787E0,1.330057E1,1.3038602E1,1.8034954E0,2.622273E0,2.350666E0,0E0,8.784187E0,6.5322404E0,6.887371E0,3.385395E0,1.2815116E1,3.6999893E0,2.1325755E0,0E0,0E0,1.4759254E1,8.293867E0,0E0,0E0,3.351642E0,0E0,2.3571548E0,3.5544496E0,3.2350616E0,9.199898E0,6.5672445E0,4.3059883E0,6.0640755E0,1.9847778E0,2.0910492E0,0E0,5.1047072E0,7.6682057E0,0E0,3.5044136E0,0E0,0E0,8.6047535E0,3.4011335E0,1.1436079E1,6.090065E0,0E0,0E0,0E0,0E0,0E0,0E0,0E0,0E0,0E0,0E0,0E0,0E0,0E0,0E0,0E0,0E0,0E0,0E0,0E0,0E0,0E0,0E0,0E0,0E0,0E0,0E0,0E0,0E0,0E0,0E0,0E0,0E0,0E0,0E0],"parents":[2147483647,0,0,1,1,2,2,3,3,4,4,5,5,6,6,7,7,8,8,9,9,10,10,11,11,12,12,13,13,14,14,15,15,16,16,18,18,19,19,20,20,21,21,22,22,23,23,24,24,27,27,28,28,31,31,33,33,34,34,35,35,36,36,37,37,38,38,39,39,40,40,41,41,43,43,44,44,46,46,49,49,50,50,51,51,52,52],"right_children":[2,4,6,8,10,12,14,16,18,20,22,24,26,28,30,32,34,-1,36,38,40,42,44,46,48,-1,-1,50,52,-1,-1,54,-1,56,58,60,62,64,66,68,70,72,-1,74,76,-1,78,-1,-1,80,82,84,86,-1,-1,-1,-1,-1,-1,-1,-1,-1,-1,-1,-1,-1,-1,-1,-1,-1,-1,-1,-1,-1,-1,-1,-1,-1,-1,-1,-1,-1,-1,-1,-1,-1,-1],"split_conditions":[-1.8005165E-1,2.0689793E-2,-1.0566361E0,-7.804951E-1,-4.317647E-1,1.0290936E0,3.8391848E0,-8.9808667E-1,-1.7096328E0,3.9717832E-1,-1.0827626E0,1.5951385E0,1.1996219E0,3.803622E-1,-4.865676E-1,-6.37424E-1,-3.728529E-1,-9.448707E-2,-3.2360244E-1,3.2649864E-2,1.0530584E-1,-1.8992116E-1,-4.8835656E-1,-8.4984934E-1,-1.2571605E-1,9.008953E-2,-1.1665267E-1,5.9275866E-1,2.5931865E-2,-1.6658002E-1,-5.331408E-2,-1.092159E0,1.0225441E-1,-2.6380968E-1,2.7250567E-1,-1.2256649E0,-6.857796E-1,-5.3917235E-1,-5.5984944E-1,-4.697343E-1,4.193034E-2,-2.7484794E-3,-1.7190833E-2,-3.102154E-1,-2.0572957E-1,-1.01893945E-2,-1.1965327E0,2.1871468E-2,-7.736988E-2,-1.3129871E0,-5.827404E-2,8.7621367E-1,1.0892713E0,8.039425E-2,-0E0,1.1342603E-1,3.0538872E-2,8.939751E-2,-3.0553475E-2,-4.3662167E-3,6.989582E-2,-4.09412E-2,3.3219684E-2,7.5312465E-2,-1.00388955E-2,-9.8353356E-2,2.9024271E-2,1.7606289E-3,-1.0533484E-1,7.065948E-2,-2.5651906E-2,3.0611068E-2,1.0562333E-1,9.729269E-4,-7.660524E-2,8.078699E-2,1.1279678E-2,-1.4335768E-1,-6.208992E-2,9.4853185E-2,-2.1871405E-2,7.814847E-4,7.054888E-2,-4.291995E-2,2.235659E-2,-9.880723E-2,-3.3410802E-2],"split_indices":[27,62,50,27,50,5,5,50,10,48,16,60,16,27,19,13,16,0,28,62,30,5,5,16,29,0,0,56,62,0,0,35,0,6,59,13,5,43,59,52,28,50,0,56,56,0,50,0,0,30,30,10,6,0,0,0,0,0,0,0,0,0,0,0,0,0,0,0,0,0,0,0,0,0,0,0,0,0,0,0,0,0,0,0,0,0,0],"split_type":[0,0,0,0,0,0,0,0,0,0,0,0,0,0,0,0,0,0,0,0,0,0,0,0,0,0,0,0,0,0,0,0,0,0,0,0,0,0,0,0,0,0,0,0,0,0,0,0,0,0,0,0,0,0,0,0,0,0,0,0,0,0,0,0,0,0,0,0,0,0,0,0,0,0,0,0,0,0,0,0,0,0,0,0,0,0,0],"sum_hessian":[9.3660834E2,5.3551447E2,4.0109387E2,2.9690665E2,2.3860785E2,5.794155E1,3.431523E2,7.419248E1,2.2271416E2,8.9521034E1,1.4908682E2,4.742671E1,1.0514842E1,3.3167505E2,1.1477278E1,2.7294014E1,4.6898464E1,3.0302725E0,2.1968388E2,5.003257E1,3.9488464E1,2.6364573E1,1.22722244E2,4.0625114E1,6.801593E0,4.8056E0,5.7092414E0,1.5416371E2,1.7751132E2,7.9360704E0,3.5412068E0,2.1321447E1,5.9725666E0,3.8832253E1,8.066212E0,8.297641E1,1.3670747E2,3.8572117E1,1.1460453E1,3.2905285E1,6.58318E0,2.3308256E1,3.0563178E0,3.3292538E1,8.942971E1,3.5131633E0,3.711195E1,3.2580187E0,3.5435743E0,1.1435403E2,3.9809685E1,1.17215454E2,6.0295868E1,6.8850102E0,1.4436438E1,3.364415E1,5.188102E0,4.365041E0,3.7011707E0,5.9475613E0,7.702885E1,1.8473337E1,1.18234146E2,1.2509233E1,2.6062881E1,8.447176E0,3.0132768E0,6.272137E0,2.6633146E1,3.1660295E0,3.4171507E0,6.5689216E0,1.6739334E1,1.4200582E1,1.9091953E1,1.9933937E1,6.949577E1,2.705234E1,1.0059612E1,5.695502E0,1.0865852E2,9.38981E0,3.0419876E1,7.7399414E1,3.9816044E1,2.9395674E1,3.0900196E1],"tree_param":{"num_deleted":"0","num_feature":"64","num_nodes":"87","size_leaf_vector":"1"}},{"base_weights":[-1.0014003E-2,2.1425055E-1,-2.1964042E-1,3.0495113E-1,-5.133187E-1,-1.9108519E-1,-1.5145845E0,3.3947638E-1,-1.2860361E0,-1.1374531E0,-1.6578011E-1,-1.4469469E-1,-8.9834625E-1,-1.8343918E-1,-6.184767E-2,5.64207E-1,1.802328E-1,-3.5082255E-2,-1.7031631E-1,-1.4499389E0,2.405305E-2,6.020671E-1,-6.395498E-1,4.9585092E-1,-1.894935E-1,-1.3453963E0,1.06108785E-1,-5.9563138E-2,6.0691446E-1,3.7389132E-1,-4.4745516E-2,-2.076412E-2,-1.78371E-1,9.0076315E-1,-2.8850436E-2,-1.1191273E0,2.336983E-1,7.728849E-1,-7.609086E-2,5.9329562E-2,-2.8890005E-1,-1.5019222E0,-3.37577E-2,7.295442E-2,-5.9331056E-2,-0E0,6.8646014E-2,4.5856703E-2,-1.4042667E-2,-2.7549336E-2,6.525444E-2,1.0039981E-2,1.2147218E-1,-2.315552E-2,-1.3871185E-1,-2.730743E-2,7.373568E-2,1.0593176E-1,-4.81832E-2,-5.573764E-2,2.052852E-2,-3.1751946E-2,9.766676E-2,-1.1209573E-1,-1.8688183E-1],"categories":[],"categories_nodes":[],"categories_segments":[],"categories_sizes":[],"default_left":[0,0,0,0,0,0,0,0,0,0,0,0,0,0,0,0,0,0,0,0,0,0,0,0,0,0,0,0,0,0,0,0,0,0,0,0,0,0,0,0,0,0,0,0,0,0,0,0,0,0,0,0,0,0,0,0,0,0,0,0,0,0,0,0,0],"id":3,"left_children":[1,3,5,7,9,11,13,15,17,19,21,23,25,-1,-1,27,29,-1,-1,31,-1,33,35,37,39,41,43,-1,45,47,49,-1,-1,51,-1,53,55,57,-1,59,61,63,-1,-1,-1,-1,-1,-1,-1,-1,-1,-1,-1,-1,-1,-1,-1,-1,-1,-1,-1,-1,-1,-1,-1],"loss_changes":[4.418906E1,3.0089626E1,1.7512348E1,2.2552338E1,1.0648939E1,1.540859E1,1.5623856E0,1.4017334E1,2.604825E0,8.139391E0,1.2667249E1,1.2940408E1,1.3299E1,0E0,0E0,8.473976E0,1.0238512E1,0E0,0E0,5.534275E0,0E0,3.8626313E0,9.328364E0,1.084753E1,1.0435636E1,2.4996605E0,4.718233E0,0E0,7.6461678E0,5.5844803E0,1.765333E1,0E0,0E0,2.3338127E0,0E0,2.8672848E0,2.3798892E0,9.44632E0,0E0,1.0927189E1,1.1137844E1,6.3323975E-4,0E0,0E0,0E0,0E0,0E0,0E0,0E0,0E0,0E0,0E0,0E0,0E0,0E0,0E0,0E0,0E0,0E0,0E0,0E0,0E0,0E0,0E0,0E0],"parents":[2147483647,0,0,1,1,2,2,3,3,4,4,5,5,6,6,7,7,8,8,9,9,10,10,11,11,12,12,15,15,16,16,19,19,21,21,22,22,23,23,24,24,25,25,26,26,28,28,29,29,30,30,33,33,35,35,36,36,37,37,39,39,40,40,41,41],"right_children":[2,4,6,8,10,12,14,16,18,20,22,24,26,-1,-1,28,30,-1,-1,32,-1,34,36,38,40,42,44,-1,46,48,50,-1,-1,52,-1,54,56,58,-1,60,62,64,-1,-1,-1,-1,-1,-1,-1,-1,-1,-1,-1,-1,-1,-1,-1,-1,-1,-1,-1,-1,-1,-1,-1],"split_conditions":[2.0811155E-2,1.2678825E0,1.8490869E0,1.7023822E0,8.220628E-3,2.2413192E0,3.8433126E-1,-1.4353892E-1,-1.02265485E-1,-2.433061E-1,8.661482E-1,-1.2977868E0,2.2883856E0,-1.8343918E-1,-6.184767E-2,-2.5479186E0,-3.972612E-1,-3.5082255E-2,-1.7031631E-1,-8.058659E-1,2.405305E-2,1.4844154E0,9.708251E-1,4.1965403E-2,9.454027E-2,1.516712E0,4.997418E0,-5.9563138E-2,-2.956207E-2,1.5981102E-1,5.8689937E-3,-2.076412E-2,-1.78371E-1,-4.2243826E-1,-2.8850436E-2,8.7207645E-1,1.7808415E-2,1.3882269E0,-7.609086E-2,-1.1235337E0,1.672745E0,3.1859048E-2,-3.37577E-2,7.295442E-2,-5.9331056E-2,-0E0,6.8646014E-2,4.5856703E-2,-1.4042667E-2,-2.7549336E-2,6.525444E-2,1.0039981E-2,1.2147218E-1,-2.315552E-2,-1.3871185E-1,-2.730743E-2,7.373568E-2,1.0593176E-1,-4.81832E-2,-5.573764E-2,2.052852E-2,-3.1751946E-2,9.766676E-2,-1.1209573E-1,-1.8688183E-1],"split_indices":[62,16,20,20,43,16,59,30,29,20,13,17,28,0,0,19,16,0,0,13,0,18,28,62,19,0,28,0,62,30,28,0,0,50,0,11,62,20,0,20,20,62,0,0,0,0,0,0,0,0,0,0,0,0,0,0,0,0,0,0,0,0,0,0,0],"split_type":[0,0,0,0,0,0,0,0,0,0,0,0,0,0,0,0,0,0,0,0,0,0,0,0,0,0,0,0,0,0,0,0,0,0,0,0,0,0,0,0,0,0,0,0,0,0,0,0,0,0,0,0,0,0,0,0,0,0,0,0,0,0,0,0,0],"sum_hessian":[9.379449E2,4.5290964E2,4.8503525E2,4.0334586E2,4.9563778E1,4.757687E2,9.26654E0,3.9561038E2,7.7354736E0,1.6811636E1,3.2752144E1,4.4774622E2,2.8022495E1,5.975364E0,3.291175E0,1.6275427E2,2.328561E2,3.0278049E0,4.707669E0,1.372057E1,3.0910666E0,1.23135195E1,2.0438623E1,2.846372E1,4.192825E2,1.9225834E1,8.796662E0,5.237133E0,1.5751715E2,1.2502164E2,1.07834465E2,3.312635E0,1.0407934E1,9.296376E0,3.0171435E0,1.3085286E1,7.353337E0,2.3703274E1,4.760447E0,1.195174E2,2.9976508E2,1.6131008E1,3.0948257E0,4.7037897E0,4.092872E0,1.8382736E1,1.3913441E2,1.0760819E2,1.7413445E1,8.15847E1,2.6249765E1,3.0808296E0,6.2155466E0,3.5534956E0,9.531791E0,3.7945726E0,3.558764E0,1.948954E1,4.2137337E0,2.2202267E1,9.731514E1,2.9394595E2,5.8191357E0,1.0036964E1,6.094044E0],"tree_param":{"num_deleted":"0","num_feature":"64","num_nodes":"65","size_leaf_vector":"1"}},{"base_weights":[7.1961526E-3,3.491154E-1,-1.9062461E-1,5.350257E-1,1.1668297E-1,-6.5049306E-2,-4.8201722E-1,8.489317E-1,4.0763187E-1,-5.0969407E-2,7.02849E-1,-5.214142E-1,4.878197E-2,-1.0235682E0,-3.7075007E-1,1.1163174E0,5.2581483E-1,1.0275346E-1,5.3991294E-1,-6.0813475E-1,1.6820237E-1,9.5090044E-1,-9.6507154E-2,-5.9058666E-1,8.457692E-2,8.086078E-2,-1.5208086E-1,-2.2297942E-3,-1.1532843E0,-6.262353E-2,-5.339543E-1,4.98362E-2,1.2184274E-1,7.843109E-1,-1.2538116E-2,4.1177222E-1,-3.7264737E-1,1.1937708E-1,4.1111833E-1,-1.510576E-1,-1.1961328E0,3.251288E-1,-3.2675752E-1,1.0436786E0,2.2865523E-2,7.726011E-2,-1.1186283E-1,5.2651867E-2,-7.3491293E-1,-4.7257744E-2,3.844371E-1,-1.4560075E0,-6.020343E-1,-4.1488445E-1,2.6571313E-1,-3.8296252E-1,-1.0317625E0,2.516231E-2,8.7044604E-2,-4.838964E-2,6.6256635E-2,-7.259811E-3,7.324173E-2,-3.9716167E-3,-1.4404139E-1,7.011829E-2,3.0402292E-3,3.2588005E-2,-1.2664579E-1,-8.2243964E-2,-1.7837402E-1,4.1285433E-2,-6.523471E-2,-5.5948056E-2,5.6634184E-2,7.214686E-2,1.2482631E-1,-3.898543E-2,9.087481E-2,3.9166663E-2,-8.405444E-2,-7.205225E-3,1.157548E-1,-6.0885865E-2,5.5022012E-2,-1.5717433E-1,-7.07299E-2,3.9676156E-2,-1.03889965E-1,-8.24549E-2,1.6478334E-2,4.5734543E-2,-8.291184E-2,-5.8835544E-2,9.736831E-3,-1.396903E-1,-4.8575483E-2],"categories":[],"categories_nodes":[],"categories_segments":[],"categories_sizes":[],"default_left":[0,0,0,0,0,0,0,0,0,0,0,0,0,0,0,0,0,0,0,0,0,0,0,0,0,0,0,0,0,0,0,0,0,0,0,0,0,0,0,0,0,0,0,0,0,0,0,0,0,0,0,0,0,0,0,0,0,0,0,0,0,0,0,0,0,0,0,0,0,0,0,0,0,0,0,0,0,0,0,0,0,0,0,0,0,0,0,0,0,0,0,0,0,0,0,0,0],"id":4,"left_children":[1,3,5,7,9,11,13,15,17,19,21,23,25,27,29,31,33,35,37,39,41,43,45,47,-1,49,-1,-1,51,53,55,-1,-1,57,59,61,63,-1,65,67,69,71,73,75,-1,-1,-1,77,79,81,83,85,87,89,91,93,95,-1,-1,-1,-1,-1,-1,-1,-1,-1,-1,-1,-1,-1,-1,-1,-1,-1,-1,-1,-1,-1,-1,-1,-1,-1,-1,-1,-1,-1,-1,-1,-1,-1,-1,-1,-1,-1,-1,-1,-1],"loss_changes":[6.3044094E1,1.4638073E1,2.1508404E1,7.0997467E0,1.5173135E1,2.1569647E1,1.0166687E1,3.8716202E0,5.3984985E0,1.4807474E1,6.980381E0,8.311342E0,1.6692331E1,3.6887302E0,7.391224E0,1.0016747E0,3.7453275E0,6.4548564E0,7.345751E0,8.887065E0,6.849598E0,1.4013233E0,8.838774E0,7.491102E0,0E0,1.2743045E1,0E0,0E0,3.2584114E0,6.2412024E0,6.7507153E0,0E0,0E0,4.9015045E-1,3.2897117E0,4.2476735E0,5.9393787E0,0E0,8.849151E0,1.1415029E1,1.5080013E0,5.954146E0,4.7318926E0,4.1642952E-1,0E0,0E0,0E0,6.233433E0,8.127987E0,6.84918E0,1.6332172E1,4.4151306E-2,5.294907E0,6.3873672E0,6.181267E0,7.6173506E0,3.4831238E0,0E0,0E0,0E0,0E0,0E0,0E0,0E0,0E0,0E0,0E0,0E0,0E0,0E0,0E0,0E0,0E0,0E0,0E0,0E0,0E0,0E0,0E0,0E0,0E0,0E0,0E0,0E0,0E0,0E0,0E0,0E0,0E0,0E0,0E0,0E0,0E0,0E0,0E0,0E0,0E0],"parents":[2147483647,0,0,1,1,2,2,3,3,4,4,5,5,6,6,7,7,8,8,9,9,10,10,11,11,12,12,13,13,14,14,15,15,16,16,17,17,18,18,19,19,20,20,21,21,22,22,23,23,25,25,28,28,29,29,30,30,33,33,34,34,35,35,36,36,38,38,39,39,40,40,41,41,42,42,43,43,47,47,48,48,49,49,50,50,51,51,52,52,53,53,54,54,55,55,56,56],"right_children":[2,4,6,8,10,12,14,16,18,20,22,24,26,28,30,32,34,36,38,40,42,44,46,48,-1,50,-1,-1,52,54,56,-1,-1,58,60,62,64,-1,66,68,70,72,74,76,-1,-1,-1,78,80,82,84,86,88,90,92,94,96,-1,-1,-1,-1,-1,-1,-1,-1,-1,-1,-1,-1,-1,-1,-1,-1,-1,-1,-1,-1,-1,-1,-1,-1,-1,-1,-1,-1,-1,-1,-1,-1,-1,-1,-1,-1,-1,-1,-1,-1],"split_conditions":[-4.8797137E-1,3.1266385E-1,6.2515837E-1,-8.766886E-1,8.562375E-1,-9.820246E-1,-1.2258567E0,-7.096736E-1,-7.7452785E-1,-7.675165E-1,1.3882269E0,1.1755836E0,1.8490869E0,-1.2860985E0,9.454027E-2,-5.15947E-1,-3.1209695E-1,-2.0922321E-1,-9.434018E-1,7.971979E-1,-4.674601E-1,1.0418128E0,9.3206817E-1,-3.4083903E-1,8.457692E-2,4.5132583E-1,-1.5208086E-1,-2.2297942E-3,6.3163616E-2,1.1950668E0,5.322752E-1,4.98362E-2,1.2184274E-1,-1.1747406E0,-7.131692E-1,-9.00316E-1,-2.548921E-1,1.1937708E-1,-2.834296E-1,-3.2481968E-1,6.635951E-1,1.9224349E-1,3.444468E-1,8.4381974E-1,2.2865523E-2,7.726011E-2,-1.1186283E-1,-1.0554552E0,-5.5292976E-1,1.4798747E0,-1.8885527E0,8.00031E-1,-1.6514761E-2,-8.622844E-2,3.4237342E0,1.2082626E0,1.3368244E0,2.516231E-2,8.7044604E-2,-4.838964E-2,6.6256635E-2,-7.259811E-3,7.324173E-2,-3.9716167E-3,-1.4404139E-1,7.011829E-2,3.0402292E-3,3.2588005E-2,-1.2664579E-1,-8.2243964E-2,-1.7837402E-1,4.1285433E-2,-6.523471E-2,-5.5948056E-2,5.6634184E-2,7.214686E-2,1.2482631E-1,-3.898543E-2,9.087481E-2,3.9166663E-2,-8.405444E-2,-7.205225E-3,1.157548E-1,-6.0885865E-2,5.5022012E-2,-1.5717433E-1,-7.07299E-2,3.9676156E-2,-1.03889965E-1,-8.24549E-2,1.6478334E-2,4.5734543E-2,-8.291184E-2,-5.8835544E-2,9.736831E-3,-1.396903E-1,-4.8575483E-2],"split_indices":[27,19,27,59,20,50,19,27,13,50,20,10,20,36,19,0,28,20,17,19,15,50,19,31,0,17,0,0,3,59,28,0,0,13,7,4,29,0,19,17,20,31,59,19,0,0,0,35,29,19,19,29,29,20,15,3,14,0,0,0,0,0,0,0,0,0,0,0,0,0,0,0,0,0,0,0,0,0,0,0,0,0,0,0,0,0,0,0,0,0,0,0,0,0,0,0,0],"split_type":[0,0,0,0,0,0,0,0,0,0,0,0,0,0,0,0,0,0,0,0,0,0,0,0,0,0,0,0,0,0,0,0,0,0,0,0,0,0,0,0,0,0,0,0,0,0,0,0,0,0,0,0,0,0,0,0,0,0,0,0,0,0,0,0,0,0,0,0,0,0,0,0,0,0,0,0,0,0,0,0,0,0,0,0,0,0,0,0,0,0,0,0,0,0,0,0,0],"sum_hessian":[9.298527E2,3.407064E2,5.891463E2,1.8833511E2,1.5237129E2,4.1281192E2,1.763344E2,5.2506676E1,1.3582843E2,1.190606E2,3.331069E1,8.187238E1,3.309395E2,2.8504002E1,1.478304E2,2.72185E1,2.5288177E1,4.186702E1,9.396141E1,3.3240406E1,8.582019E1,2.5372704E1,7.937989E0,7.853984E1,3.3325427E0,3.2530328E2,5.636254E0,3.4920347E0,2.5011967E1,5.187944E1,9.595095E1,4.832551E0,2.238595E1,1.690158E1,8.386597E0,2.5582283E1,1.6284737E1,1.3973955E1,7.998746E1,1.9505152E1,1.3735254E1,6.5574905E1,2.0245285E1,2.196732E1,3.4053848E0,4.369172E0,3.568817E0,1.4382353E1,6.4157486E1,2.2912178E2,9.618149E1,1.4968958E1,1.0043009E1,2.5047657E1,2.6831783E1,7.513246E1,2.0818493E1,3.0599685E0,1.3841612E1,5.1925254E0,3.194071E0,1.0373567E1,1.5208716E1,1.3276082E1,3.0086536E0,4.4771774E1,3.521568E1,1.4095985E1,5.409167E0,9.966689E0,3.768566E0,6.0798374E1,4.7765346E0,1.6445463E1,3.7998223E0,1.0478896E1,1.1488423E1,9.763512E0,4.618841E0,5.1866236E0,5.8970863E1,2.2550418E2,3.617604E0,1.3288299E1,8.289319E1,1.1897065E1,3.0718927E0,3.014323E0,7.0286856E0,1.4529434E1,1.0518223E1,2.3408175E1,3.42361E0,5.2616543E1,2.2515917E1,1.1431909E1,9.386584E0],"tree_param":{"num_deleted":"0","num_feature":"64","num_nodes":"97","size_leaf_vector":"1"}},{"base_weights":[-2.8549312E-4,3.156106E-1,-1.7425628E-1,4.9280116E-1,1.4760406E-1,-8.9394E-2,-5.368746E-1,5.643645E-1,7.487769E-2,-7.7618584E-3,4.329396E-1,-5.4665434E-1,-2.7821155E-2,-2.5874594E-1,-7.528129E-1,6.677402E-1,3.0439445E-1,-2.1212587E-1,6.3887304E-1,4.8053366E-1,-1.782631E-1,7.432893E-1,-6.824611E-2,-6.336519E-1,7.581924E-2,-9.590248E-4,-9.0079737E-1,-9.546431E-1,9.504458E-2,-5.6153154E-1,-1.1767124E0,7.216596E-1,6.3019805E-2,-5.0295347E-1,5.732065E-1,-4.656368E-1,5.096661E-2,8.92347E-3,9.034487E-2,-4.572936E-2,6.7540425E-1,2.1409573E-1,-5.405516E-1,8.9558595E-1,-8.235186E-3,-8.4140605E-1,2.643801E-1,-5.9986915E-2,-8.148473E-1,-1.4285874E-1,2.3438905E-1,-4.0011373E-1,-1.4459984E-1,-1.302927E-1,-4.0940467E-1,2.843352E-1,-4.9695304E-1,-2.8318006E-1,-9.5692325E-1,-1.3167479E0,-3.94303E-2,6.3002676E-2,1.1308783E-1,-8.701413E-2,6.795592E-2,3.0023053E-2,-8.856987E-2,-3.0156938E-2,7.0910566E-2,4.5103293E-2,-7.938602E-2,-2.2990732E-2,8.794599E-2,3.95958E-2,-6.443798E-2,7.8300714E-2,-6.73356E-2,3.407675E-2,1.08185306E-1,-1.3894641E-1,-7.1332166E-3,-8.0253044E-4,7.482813E-2,1.0246167E-1,-5.4982252E-2,-2.9679192E-2,-9.773322E-2,3.1049376E-2,-2.252687E-2,-5.5449866E-3,4.4808064E-2,-9.863766E-2,1.1533986E-2,9.87409E-3,-8.222821E-2,-1.3957137E-2,8.606719E-2,1.533611E-2,-1.1094957E-1,1.10870125E-2,-5.2883178E-2,-5.3567607E-2,-1.3988033E-1,-1.4729793E-1,-5.7863425E-2],"categories":[],"categories_nodes":[],"categories_segments":[],"categories_sizes":[],"default_left":[0,0,0,0,0,0,0,0,0,0,0,0,0,0,0,0,0,0,0,0,0,0,0,0,0,0,0,0,0,0,0,0,0,0,0,0,0,0,0,0,0,0,0,0,0,0,0,0,0,0,0,0,0,0,0,0,0,0,0,0,0,0,0,0,0,0,0,0,0,0,0,0,0,0,0,0,0,0,0,0,0,0,0,0,0,0,0,0,0,0,0,0,0,0,0,0,0,0,0,0,0,0,0,0,0],"id":5,"left_children":[1,3,5,7,9,11,13,15,17,19,21,23,25,27,29,31,33,35,37,39,41,43,45,47,-1,49,51,53,55,57,59,61,63,65,67,69,-1,-1,-1,-1,71,73,75,77,-1,79,81,83,85,87,89,91,-1,-1,93,95,97,99,101,103,-1,-1,-1,-1,-1,-1,-1,-1,-1,-1,-1,-1,-1,-1,-1,-1,-1,-1,-1,-1,-1,-1,-1,-1,-1,-1,-1,-1,-1,-1,-1,-1,-1,-1,-1,-1,-1,-1,-1,-1,-1,-1,-1,-1,-1],"loss_changes":[5.1357506E1,9.739677E0,1.8445179E1,4.701622E0,7.67153E0,1.3725047E1,6.54665E0,3.378502E0,4.2021737E0,9.390622E0,9.588763E0,7.0421066E0,1.0066397E1,1.2861387E1,4.3069916E0,3.0334053E0,9.206519E0,3.3635116E0,1.0926573E0,5.6558228E0,1.2087229E1,4.909359E0,6.4721775E0,5.5711956E0,0E0,1.4095146E1,2.7358942E0,2.6282015E0,4.0388436E0,4.642269E0,1.3521194E0,2.4359245E0,5.8507514E0,3.6126313E0,3.9832544E0,4.3899612E0,0E0,0E0,0E0,0E0,4.8147926E0,6.6165915E0,8.265167E0,2.8072548E0,0E0,2.9505682E0,2.387514E0,8.162158E0,3.0772629E0,9.914882E0,9.8869505E0,2.6668003E0,0E0,0E0,1.918232E0,6.8527102E0,3.7348132E0,2.8523076E0,2.4711494E0,7.040329E-1,0E0,0E0,0E0,0E0,0E0,0E0,0E0,0E0,0E0,0E0,0E0,0E0,0E0,0E0,0E0,0E0,0E0,0E0,0E0,0E0,0E0,0E0,0E0,0E0,0E0,0E0,0E0,0E0,0E0,0E0,0E0,0E0,0E0,0E0,0E0,0E0,0E0,0E0,0E0,0E0,0E0,0E0,0E0,0E0,0E0],"parents":[2147483647,0,0,1,1,2,2,3,3,4,4,5,5,6,6,7,7,8,8,9,9,10,10,11,11,12,12,13,13,14,14,15,15,16,16,17,17,18,18,19,19,20,20,21,21,22,22,23,23,25,25,26,26,27,27,28,28,29,29,30,30,31,31,32,32,33,33,34,34,35,35,40,40,41,41,42,42,43,43,45,45,46,46,47,47,48,48,49,49,50,50,51,51,54,54,55,55,56,56,57,57,58,58,59,59],"right_children":[2,4,6,8,10,12,14,16,18,20,22,24,26,28,30,32,34,36,38,40,42,44,46,48,-1,50,52,54,56,58,60,62,64,66,68,70,-1,-1,-1,-1,72,74,76,78,-1,80,82,84,86,88,90,92,-1,-1,94,96,98,100,102,104,-1,-1,-1,-1,-1,-1,-1,-1,-1,-1,-1,-1,-1,-1,-1,-1,-1,-1,-1,-1,-1,-1,-1,-1,-1,-1,-1,-1,-1,-1,-1,-1,-1,-1,-1,-1,-1,-1,-1,-1,-1,-1,-1,-1,-1],"split_conditions":[-4.8797137E-1,1.8350631E-2,1.125528E0,-5.634117E-1,-3.0513576E-1,-1.2524914E0,2.3522235E-2,-3.728529E-1,-2.4436751E-2,-5.365056E-2,-2.9582521E-2,1.3111867E0,2.5918741E0,4.483758E-1,2.7575023E0,7.045823E-1,-2.51225E-1,1.6023213E-2,-7.4002154E-2,-1.3749932E0,-8.5231584E-1,-4.5237534E-2,-7.189112E-1,-5.278711E-1,7.581924E-2,2.921709E-1,2.2758992E0,-5.3818464E-1,1.2139659E0,4.939149E-2,2.054748E0,8.0865175E-1,1.3614551E-2,-3.7873116E-1,-2.956207E-2,-1.0562958E0,5.096661E-2,8.92347E-3,9.034487E-2,-4.572936E-2,-1.3364294E0,3.6553033E-2,-1.2288197E0,-2.195837E-1,-8.235186E-3,-4.0470782E-1,1.124537E0,5.024173E-3,-7.826635E-1,-4.704292E-1,5.397111E-2,1.276154E0,-1.4459984E-1,-1.302927E-1,1.622345E-2,2.2219642E-1,1.0127932E0,9.9541295E-1,4.649905E-1,2.7975914E0,-3.94303E-2,6.3002676E-2,1.1308783E-1,-8.701413E-2,6.795592E-2,3.0023053E-2,-8.856987E-2,-3.0156938E-2,7.0910566E-2,4.5103293E-2,-7.938602E-2,-2.2990732E-2,8.794599E-2,3.95958E-2,-6.443798E-2,7.8300714E-2,-6.73356E-2,3.407675E-2,1.08185306E-1,-1.3894641E-1,-7.1332166E-3,-8.0253044E-4,7.482813E-2,1.0246167E-1,-5.4982252E-2,-2.9679192E-2,-9.773322E-2,3.1049376E-2,-2.252687E-2,-5.5449866E-3,4.4808064E-2,-9.863766E-2,1.1533986E-2,9.87409E-3,-8.222821E-2,-1.3957137E-2,8.606719E-2,1.533611E-2,-1.1094957E-1,1.10870125E-2,-5.2883178E-2,-5.3567607E-2,-1.3988033E-1,-1.4729793E-1,-5.7863425E-2],"split_indices":[27,62,27,27,11,50,62,16,18,19,28,10,18,43,27,35,16,62,15,60,15,17,27,53,0,17,15,19,5,48,53,50,42,28,62,46,0,0,0,0,50,62,17,13,0,16,36,35,41,10,13,13,0,0,43,28,46,41,28,8,0,0,0,0,0,0,0,0,0,0,0,0,0,0,0,0,0,0,0,0,0,0,0,0,0,0,0,0,0,0,0,0,0,0,0,0,0,0,0,0,0,0,0,0,0],"split_type":[0,0,0,0,0,0,0,0,0,0,0,0,0,0,0,0,0,0,0,0,0,0,0,0,0,0,0,0,0,0,0,0,0,0,0,0,0,0,0,0,0,0,0,0,0,0,0,0,0,0,0,0,0,0,0,0,0,0,0,0,0,0,0,0,0,0,0,0,0,0,0,0,0,0,0,0,0,0,0,0,0,0,0,0,0,0,0,0,0,0,0,0,0,0,0,0,0,0,0,0,0,0,0,0,0],"sum_hessian":[9.327652E2,3.307679E2,6.0199725E2,1.5975331E2,1.7101462E2,4.8906534E2,1.1293192E2,1.358938E2,2.3859518E1,1.11127655E2,5.9886955E1,5.691244E1,4.321529E2,5.0521526E1,6.24104E1,9.583307E1,4.0060726E1,1.6108747E1,7.7507696E0,2.8138224E1,8.298943E1,3.6809708E1,2.3077248E1,5.39092E1,3.0032434E0,4.2033453E2,1.1818358E1,1.6550814E1,3.3970715E1,4.476922E1,1.764118E1,8.765835E1,8.174721E0,9.6962E0,3.0364525E1,1.2286767E1,3.8219802E0,3.0759423E0,4.6748276E0,4.5209665E0,2.3617258E1,3.9905144E1,4.3084286E1,3.1107977E1,5.701733E0,6.5720825E0,1.6505165E1,1.3392251E1,4.051695E1,2.6273822E2,1.5759631E2,7.160155E0,4.6582036E0,9.139617E0,7.4111977E0,2.6262066E1,7.708647E0,2.7428774E1,1.7340446E1,1.4275418E1,3.3657613E0,7.3895515E1,1.3762833E1,3.024091E0,5.1506295E0,3.1145945E0,6.581606E0,3.8200648E0,2.654446E1,3.0604997E0,9.226268E0,4.230685E0,1.9386572E1,3.347E1,6.4351435E0,3.413695E0,3.9670593E1,8.66489E0,2.2443087E1,3.293751E0,3.2783313E0,1.1057348E1,5.4478173E0,3.7633848E0,9.628867E0,1.0495586E1,3.002136E1,3.980152E1,2.2293669E2,6.699742E1,9.059889E1,3.0133018E0,4.146853E0,3.5548003E0,3.8563972E0,1.5468795E1,1.0793272E1,4.023462E0,3.6851847E0,1.0587285E1,1.6841488E1,1.0125915E1,7.2145314E0,1.0848178E1,3.4272406E0],"tree_param":{"num_deleted":"0","num_feature":"64","num_nodes":"105","size_leaf_vector":"1"}},{"base_weights":[-9.682481E-3,2.169617E-1,-2.037052E-1,4.305351E-1,7.208343E-2,-1.7466827E-1,-1.5544696E-1,3.0079496E-1,7.4856883E-1,-1.2148747E-1,2.2906965E-1,-6.884826E-2,-4.9937084E-1,5.146046E-1,-1.7088285E-1,8.25252E-1,-2.2702858E-2,-3.0068794E-1,4.1504443E-1,2.931855E-1,-4.7409743E-1,-2.2059345E-1,2.2523783E-1,-7.406165E-1,-2.1799372E-1,5.7513833E-1,-7.519207E-2,1.5550765E-2,-1.2267005E-1,1.1035365E-1,5.69198E-1,-8.7437624E-1,-3.3235576E-2,6.562238E-1,-9.545488E-2,1.8451695E-1,6.474348E-1,4.610792E-2,-1.4355054E-1,-8.66202E-3,-4.351532E-1,2.881448E-1,-4.2931724E-1,-1.1787224E0,-5.530499E-1,-7.3358975E-2,-6.2728333E-1,6.648752E-2,8.9656794E-4,-4.5202114E-2,4.7471315E-2,9.027982E-2,2.2348465E-2,-1.1237944E-2,-1.1139057E-1,7.325213E-2,-1.5178598E-2,8.449189E-2,-1.5231541E-2,7.132584E-2,4.786761E-3,1.9677674E-2,9.423015E-2,5.5448826E-2,-4.942411E-2,1.7601235E-2,-4.402744E-2,-4.9687903E-2,2.2459146E-2,4.5311913E-2,2.2151992E-4,-1.7177965E-1,5.1880576E-2,-4.2940404E-2,-1.348174E-1,-4.741138E-3,-7.2516315E-2,-3.0170286E-2,2.607659E-2,-1.0231161E-1,-1.1771187E-2],"categories":[],"categories_nodes":[],"categories_segments":[],"categories_sizes":[],"default_left":[0,0,0,0,0,0,0,0,0,0,0,0,0,0,0,0,0,0,0,0,0,0,0,0,0,0,0,0,0,0,0,0,0,0,0,0,0,0,0,0,0,0,0,0,0,0,0,0,0,0,0,0,0,0,0,0,0,0,0,0,0,0,0,0,0,0,0,0,0,0,0,0,0,0,0,0,0,0,0,0,0],"id":6,"left_children":[1,3,5,7,9,11,-1,13,15,17,19,21,23,25,27,29,-1,31,33,35,37,39,41,43,45,47,-1,49,-1,-1,51,53,55,57,-1,59,61,63,-1,65,67,69,71,73,75,77,79,-1,-1,-1,-1,-1,-1,-1,-1,-1,-1,-1,-1,-1,-1,-1,-1,-1,-1,-1,-1,-1,-1,-1,-1,-1,-1,-1,-1,-1,-1,-1,-1,-1,-1],"loss_changes":[4.0730297E1,1.3131008E1,1.913751E1,6.771206E0,7.8147526E0,1.6743515E1,0E0,1.2641018E1,3.9108028E0,1.1166727E1,6.5198293E0,1.6601767E1,7.890785E0,6.993601E0,7.8805223E0,2.4619312E0,0E0,1.3213499E1,1.01969795E1,4.8333864E0,6.2626953E0,1.1110607E1,5.3190656E0,4.4355164E0,3.2591982E0,4.1201096E0,0E0,7.586879E0,0E0,0E0,2.691104E0,4.7664757E0,5.538706E0,4.0681543E0,0E0,7.239642E0,3.6998367E0,2.6866841E0,0E0,1.0044294E1,5.0943756E0,5.4329405E0,1.4883077E1,1.5476036E0,3.9673119E0,3.3972282E0,2.705289E0,0E0,0E0,0E0,0E0,0E0,0E0,0E0,0E0,0E0,0E0,0E0,0E0,0E0,0E0,0E0,0E0,0E0,0E0,0E0,0E0,0E0,0E0,0E0,0E0,0E0,0E0,0E0,0E0,0E0,0E0,0E0,0E0,0E0,0E0],"parents":[2147483647,0,0,1,1,2,2,3,3,4,4,5,5,7,7,8,8,9,9,10,10,11,11,12,12,13,13,14,14,15,15,17,17,18,18,19,19,20,20,21,21,22,22,23,23,24,24,25,25,27,27,30,30,31,31,32,32,33,33,35,35,36,36,37,37,39,39,40,40,41,41,42,42,43,43,44,44,45,45,46,46],"right_children":[2,4,6,8,10,12,-1,14,16,18,20,22,24,26,28,30,-1,32,34,36,38,40,42,44,46,48,-1,50,-1,-1,52,54,56,58,-1,60,62,64,-1,66,68,70,72,74,76,78,80,-1,-1,-1,-1,-1,-1,-1,-1,-1,-1,-1,-1,-1,-1,-1,-1,-1,-1,-1,-1,-1,-1,-1,-1,-1,-1,-1,-1,-1,-1,-1,-1,-1,-1],"split_conditions":[-3.463283E-1,-7.200361E-1,1.9365169E0,-6.37424E-1,-5.870145E-1,1.0454688E0,-1.5544696E-1,-2.8503025E-1,1.3882269E0,8.695743E-1,5.429006E-1,3.4380898E-1,6.926983E-1,5.000547E-1,-7.5133964E-2,-6.8504E-1,-2.2702858E-2,-7.4886364E-1,-7.027946E-2,4.698939E-1,4.9169877E-1,-9.656317E-2,2.185383E0,-7.6936805E-1,2.7575023E0,-6.8625605E-1,-7.519207E-2,-7.861694E-1,-1.2267005E-1,1.1035365E-1,-1.2327506E-1,-1.083535E0,-1.2288197E0,-8.4664775E-3,-9.545488E-2,-8.7655675E-1,-7.58995E-1,8.372205E-1,-1.4355054E-1,1.1185367E0,1.7842951E0,4.5020658E-1,6.8156993E-1,-1.3081974E-1,3.2207385E-1,1.2082626E0,3.1435046E-1,6.648752E-2,8.9656794E-4,-4.5202114E-2,4.7471315E-2,9.027982E-2,2.2348465E-2,-1.1237944E-2,-1.1139057E-1,7.325213E-2,-1.5178598E-2,8.449189E-2,-1.5231541E-2,7.132584E-2,4.786761E-3,1.9677674E-2,9.423015E-2,5.5448826E-2,-4.942411E-2,1.7601235E-2,-4.402744E-2,-4.9687903E-2,2.2459146E-2,4.5311913E-2,2.2151992E-4,-1.7177965E-1,5.1880576E-2,-4.2940404E-2,-1.348174E-1,-4.741138E-3,-7.2516315E-2,-3.0170286E-2,2.607659E-2,-1.0231161E-1,-1.1771187E-2],"split_indices":[27,43,20,13,45,27,0,29,20,20,11,40,60,16,30,27,0,50,29,17,20,31,30,20,27,11,0,50,0,0,20,18,17,30,0,17,20,16,0,16,58,20,17,29,15,3,50,0,0,0,0,0,0,0,0,0,0,0,0,0,0,0,0,0,0,0,0,0,0,0,0,0,0,0,0,0,0,0,0,0,0],"split_type":[0,0,0,0,0,0,0,0,0,0,0,0,0,0,0,0,0,0,0,0,0,0,0,0,0,0,0,0,0,0,0,0,0,0,0,0,0,0,0,0,0,0,0,0,0,0,0,0,0,0,0,0,0,0,0,0,0,0,0,0,0,0,0,0,0,0,0,0,0,0,0,0,0,0,0,0,0,0,0,0,0],"sum_hessian":[9.2425836E2,4.260002E2,4.9825815E2,1.71104E2,2.5489622E2,4.8895068E2,9.307472E0,1.2313284E2,4.7971153E1,1.1396343E2,1.4093279E2,3.699158E2,1.190349E2,8.480987E1,3.832298E1,4.4713245E1,3.257909E0,8.589923E1,2.8064201E1,1.2982079E2,1.1111997E1,2.4439868E2,1.25517105E2,6.3017643E1,5.6017254E1,8.153762E1,3.2722478E0,3.3328476E1,4.9945E0,1.9653313E1,2.5059933E1,2.6472422E1,5.942681E1,2.4367134E1,3.697068E0,1.00725624E2,2.9095167E1,7.7607713E0,3.3512251E0,1.2371027E2,1.20688416E2,1.15161865E2,1.0355238E1,1.7147707E1,4.5869934E1,4.244249E1,1.3574764E1,7.007928E1,1.145834E1,1.6412823E1,1.6915655E1,1.1786117E1,1.3273815E1,6.782481E0,1.968994E1,7.1593914E0,5.226742E1,1.9820217E1,4.5469155E0,1.9668865E1,8.1056755E1,1.23011875E1,1.679398E1,4.080544E0,3.6802275E0,8.689216E1,3.6818115E1,1.10727196E2,9.961222E0,7.243449E1,4.2727375E1,4.0902963E0,6.2649417E0,3.9232492E0,1.3224458E1,1.211999E1,3.3749947E1,2.5447659E1,1.699483E1,6.9623795E0,6.6123853E0],"tree_param":{"num_deleted":"0","num_feature":"64","num_nodes":"81","size_leaf_vector":"1"}},{"base_weights":[-7.4081337E-3,1.9763812E-1,-1.8231234E-1,3.3840564E-1,-3.515897E-2,-1.5382354E-1,-1.3369167E0,3.9273134E-1,-1.6406849E-1,-6.338628E-1,6.785918E-2,-9.859182E-2,-7.122648E-1,-1.5072744E-1,-6.1265685E-2,3.2562557E-1,6.84672E-1,-4.2330855E-1,7.0064E-2,4.078886E-2,-9.6621704E-1,2.157099E-1,-3.1730202E-1,-2.3844692E-1,1.1429564E-1,-9.612891E-1,-2.9350907E-1,3.9366046E-1,-7.9071015E-2,-2.4727656E-2,7.652907E-1,1.321321E-1,-1.0756263E0,-1.3594525E-1,-4.9234203E-1,-3.30377E-2,4.9707353E-1,2.0134683E-1,-1.0299423E0,-2.699249E-1,8.686833E-1,2.7669153E-1,-3.330212E-1,-1.1610183E0,-8.37514E-3,1.4723393E-1,-1.1372627E-1,4.1768204E-2,-6.326261E-2,1.0977483E-1,-2.7425328E-2,1.1135055E-1,5.1094223E-2,9.5015906E-2,-2.4921771E-2,-1.321044E-1,-3.6185272E-2,8.973808E-3,-1.0271068E-1,3.1700075E-2,-3.998328E-2,-4.8508257E-2,6.637782E-2,-7.136637E-2,5.1962316E-2,-1.3681503E-2,-1.2531906E-1,-6.0255905E-3,-4.3545544E-2,1.1528907E-1,3.911794E-2,4.9517546E-2,1.8712264E-3,-5.4934376E-4,-7.678565E-2,-3.135324E-2,-1.2758446E-1,6.2290158E-2,-7.93358E-2],"categories":[],"categories_nodes":[],"categories_segments":[],"categories_sizes":[],"default_left":[0,0,0,0,0,0,0,0,0,0,0,0,0,0,0,0,0,0,0,0,0,0,0,0,0,0,0,0,0,0,0,0,0,0,0,0,0,0,0,0,0,0,0,0,0,0,0,0,0,0,0,0,0,0,0,0,0,0,0,0,0,0,0,0,0,0,0,0,0,0,0,0,0,0,0,0,0,0,0],"id":7,"left_children":[1,3,5,7,9,11,13,15,17,19,21,23,25,-1,-1,27,29,31,-1,-1,33,35,37,39,41,43,45,47,49,-1,51,53,55,-1,57,59,61,63,65,67,69,71,73,75,-1,77,-1,-1,-1,-1,-1,-1,-1,-1,-1,-1,-1,-1,-1,-1,-1,-1,-1,-1,-1,-1,-1,-1,-1,-1,-1,-1,-1,-1,-1,-1,-1,-1,-1],"loss_changes":[3.314653E1,1.397727E1,1.6060555E1,7.3308544E0,1.0022023E1,1.4907924E1,3.2078934E-1,4.376709E0,6.190485E0,8.709975E0,7.917965E0,1.3307427E1,4.1410046E0,0E0,0E0,5.494459E0,3.5213032E0,7.858165E0,0E0,0E0,2.5847454E0,7.0978765E0,1.4520887E1,9.568526E0,1.2949551E1,4.469166E0,6.9065223E0,4.415718E0,6.883021E0,0E0,2.857977E0,4.1031404E0,1.0819988E0,0E0,3.3151953E0,7.081044E0,8.103492E0,7.061041E0,2.9720135E0,9.050297E0,4.2617416E-1,7.301676E0,6.6767282E0,1.5460415E0,0E0,6.0860176E0,0E0,0E0,0E0,0E0,0E0,0E0,0E0,0E0,0E0,0E0,0E0,0E0,0E0,0E0,0E0,0E0,0E0,0E0,0E0,0E0,0E0,0E0,0E0,0E0,0E0,0E0,0E0,0E0,0E0,0E0,0E0,0E0,0E0],"parents":[2147483647,0,0,1,1,2,2,3,3,4,4,5,5,6,6,7,7,8,8,9,9,10,10,11,11,12,12,15,15,16,16,17,17,20,20,21,21,22,22,23,23,24,24,25,25,26,26,27,27,28,28,30,30,31,31,32,32,34,34,35,35,36,36,37,37,38,38,39,39,40,40,41,41,42,42,43,43,45,45],"right_children":[2,4,6,8,10,12,14,16,18,20,22,24,26,-1,-1,28,30,32,-1,-1,34,36,38,40,42,44,46,48,50,-1,52,54,56,-1,58,60,62,64,66,68,70,72,74,76,-1,78,-1,-1,-1,-1,-1,-1,-1,-1,-1,-1,-1,-1,-1,-1,-1,-1,-1,-1,-1,-1,-1,-1,-1,-1,-1,-1,-1,-1,-1,-1,-1,-1,-1],"split_conditions":[-3.463283E-1,-2.3645394E-1,1.8490869E0,2.5103861E-2,-7.931706E-1,2.055071E0,3.0046207E-1,-2.2350882E-1,-1.8049267E-1,-8.670228E-1,3.0668791E-2,3.0010515E-1,1.804889E0,-1.5072744E-1,-6.1265685E-2,-2.5147974E-1,-6.8625605E-1,-6.527084E-1,7.0064E-2,4.078886E-2,-2.9380506E-2,4.6616906E-1,4.6354336E-1,1.5808693E0,1.50119E0,2.2883856E0,2.2715745E0,9.839689E-1,-9.0674216E-1,-2.4727656E-2,-6.527084E-1,-1.0823317E0,-8.275421E-2,-1.3594525E-1,-1.7355488E-1,-3.1938326E-1,-1.2991235E0,-9.368188E-1,-1.8871324E-1,2.0689793E-2,1.5477366E-2,3.568491E-1,1.5353456E0,3.2230294E-1,-8.37514E-3,1.3802233E0,-1.1372627E-1,4.1768204E-2,-6.326261E-2,1.0977483E-1,-2.7425328E-2,1.1135055E-1,5.1094223E-2,9.5015906E-2,-2.4921771E-2,-1.321044E-1,-3.6185272E-2,8.973808E-3,-1.0271068E-1,3.1700075E-2,-3.998328E-2,-4.8508257E-2,6.637782E-2,-7.136637E-2,5.1962316E-2,-1.3681503E-2,-1.2531906E-1,-6.0255905E-3,-4.3545544E-2,1.1528907E-1,3.911794E-2,4.9517546E-2,1.8712264E-3,-5.4934376E-4,-7.678565E-2,-3.135324E-2,-1.2758446E-1,6.2290158E-2,-7.93358E-2],"split_indices":[27,56,20,62,7,18,59,28,29,44,28,13,59,0,0,28,11,27,0,0,30,42,20,20,27,28,59,45,27,0,27,15,36,0,0,2,50,20,30,62,27,20,13,13,0,29,0,0,0,0,0,0,0,0,0,0,0,0,0,0,0,0,0,0,0,0,0,0,0,0,0,0,0,0,0,0,0,0,0],"split_type":[0,0,0,0,0,0,0,0,0,0,0,0,0,0,0,0,0,0,0,0,0,0,0,0,0,0,0,0,0,0,0,0,0,0,0,0,0,0,0,0,0,0,0,0,0,0,0,0,0,0,0,0,0,0,0,0,0,0,0,0,0,0,0,0,0,0,0,0,0,0,0,0,0,0,0,0,0,0,0],"sum_hessian":[9.222807E2,4.2423434E2,4.9804633E2,2.643583E2,1.5987604E2,4.8724387E2,1.0802459E1,2.3894217E2,2.5416151E1,2.2857042E1,1.37019E2,4.446246E2,4.261925E1,7.7583694E0,3.0440896E0,1.9628241E2,4.265976E1,2.003558E1,5.38057E0,5.4006767E0,1.7456366E1,9.95172E1,3.7501797E1,2.685512E2,1.760734E2,2.5763754E1,1.6855497E1,1.6826859E2,2.8013826E1,3.1331382E0,3.952662E1,1.1169245E1,8.866335E0,8.403266E0,9.0531E0,5.3099888E1,4.641731E1,2.2039165E1,1.5462631E1,2.6194995E2,6.601259E0,1.296204E2,4.6452976E1,2.0631086E1,5.1326675E0,1.1536353E1,5.319144E0,1.6509479E2,3.1737995E0,3.2545416E0,2.4759285E1,1.5092817E1,2.4433802E1,3.1604583E0,8.008787E0,5.8604417E0,3.0058935E0,4.6437116E0,4.409388E0,2.7100534E1,2.5999353E1,6.3711834E0,4.0046127E1,5.286002E0,1.6753162E1,3.5042593E0,1.1958372E1,1.1643539E2,1.4551457E2,3.1202643E0,3.480995E0,6.947479E1,6.0145615E1,2.7204521E1,1.9248455E1,3.0108209E0,1.7620266E1,7.9566565E0,3.5796964E0],"tree_param":{"num_deleted":"0","num_feature":"64","num_nodes":"79","size_leaf_vector":"1"}},{"base_weights":[-5.902323E-3,2.1622925E-1,-1.5061983E-1,3.9639986E-1,5.1862006E-3,-1.2677479E-1,-1.2549073E-1,4.2307538E-1,-9.309604E-2,-4.1932806E-1,1.7863044E-1,-4.9845988E-1,-5.8277946E-2,6.6933644E-1,2.8820434E-1,-6.2138724E-1,6.0500175E-1,7.090541E-1,6.3059606E-2,-2.1468279E-1,-7.377576E-1,-2.868926E-2,-9.3543965E-1,6.3832164E-2,7.3324436E-1,-9.568893E-2,3.4369493E-1,-4.3060076E-1,-1.3335303E0,7.5649577E-3,9.232184E-2,1.8474613E-1,1.023584E0,-8.505785E-2,1.04196236E-1,-1.2785937E-1,-4.853785E-2,-8.528473E-1,-1.7325929E-1,1.3798693E-1,-1.3007529E-1,-1.2190504E0,-2.7171586E-2,-5.2493658E-2,7.1516946E-2,5.246476E-2,9.310152E-2,1.63758E-2,5.9396137E-2,-1.0228651E-1,6.433112E-3,-4.7822304E-2,-1.7206252E-1,-4.2280253E-2,8.9286946E-2,1.1558833E-1,4.7906745E-2,1.8836042E-2,-3.8373474E-2,-2.0272205E-2,5.349073E-2,-1.00929014E-1,-1.8428901E-2,-8.793668E-2,8.516826E-2,-5.5105705E-2,2.1550184E-2,-3.0811593E-2,6.2264795E-3,-4.0144853E-2,-1.5086162E-1],"categories":[],"categories_nodes":[],"categories_segments":[],"categories_sizes":[],"default_left":[0,0,0,0,0,0,0,0,0,0,0,0,0,0,0,0,0,0,0,0,0,0,0,0,0,0,0,0,0,0,0,0,0,0,0,0,0,0,0,0,0,0,0,0,0,0,0,0,0,0,0,0,0,0,0,0,0,0,0,0,0,0,0,0,0,0,0,0,0,0,0],"id":8,"left_children":[1,3,5,7,9,11,-1,13,-1,15,17,19,21,23,25,27,29,31,33,35,37,39,41,43,45,-1,47,49,51,-1,-1,53,55,-1,57,-1,59,61,63,65,67,69,-1,-1,-1,-1,-1,-1,-1,-1,-1,-1,-1,-1,-1,-1,-1,-1,-1,-1,-1,-1,-1,-1,-1,-1,-1,-1,-1,-1,-1],"loss_changes":[2.963143E1,1.3777321E1,1.4409392E1,7.275757E0,1.2468514E1,1.386464E1,0E0,6.111515E0,0E0,1.0529807E1,7.271055E0,5.5117455E0,1.1919653E1,2.4727879E0,9.009413E0,4.8938084E0,1.2632089E0,3.206522E0,3.7827938E0,6.953934E0,2.7029705E0,7.621698E0,2.3431644E0,3.3309975E0,1.8624382E0,0E0,5.3182306E0,1.0231667E1,1.6690054E0,0E0,0E0,4.4405546E0,2.1844292E-1,0E0,4.0342054E0,0E0,3.3227406E0,3.6019478E0,7.3379803E0,9.181863E0,9.655995E0,1.5984449E0,0E0,0E0,0E0,0E0,0E0,0E0,0E0,0E0,0E0,0E0,0E0,0E0,0E0,0E0,0E0,0E0,0E0,0E0,0E0,0E0,0E0,0E0,0E0,0E0,0E0,0E0,0E0,0E0,0E0],"parents":[2147483647,0,0,1,1,2,2,3,3,4,4,5,5,7,7,9,9,10,10,11,11,12,12,13,13,14,14,15,15,16,16,17,17,18,18,19,19,20,20,21,21,22,22,23,23,24,24,26,26,27,27,28,28,31,31,32,32,34,34,36,36,37,37,38,38,39,39,40,40,41,41],"right_children":[2,4,6,8,10,12,-1,14,-1,16,18,20,22,24,26,28,30,32,34,36,38,40,42,44,46,-1,48,50,52,-1,-1,54,56,-1,58,-1,60,62,64,66,68,70,-1,-1,-1,-1,-1,-1,-1,-1,-1,-1,-1,-1,-1,-1,-1,-1,-1,-1,-1,-1,-1,-1,-1,-1,-1,-1,-1,-1,-1],"split_conditions":[-4.371646E-1,2.9101798E-1,1.8490869E0,1.6567091E0,-7.4886364E-1,-1.0473096E0,-1.2549073E-1,-3.597451E-1,-9.309604E-2,9.021753E-1,-1.1982532E0,4.7001764E-3,3.8391848E0,-1.4220462E0,-1.6051397E0,6.798956E-1,-9.977907E-2,3.455728E-2,-5.465567E-1,-6.857796E-1,1.0290936E0,2.062324E-2,3.1387502E-1,6.57796E-3,-3.388984E-1,-9.568893E-2,-2.2350882E-1,-8.622844E-2,-1.8663436E-1,7.5649577E-3,9.232184E-2,6.2358475E-1,-7.0505476E-1,-8.505785E-2,3.0668791E-2,-1.2785937E-1,2.572829E-2,1.4641575E0,3.443001E-1,-1.8885527E0,3.0010515E-1,1.6845902E0,-2.7171586E-2,-5.2493658E-2,7.1516946E-2,5.246476E-2,9.310152E-2,1.63758E-2,5.9396137E-2,-1.0228651E-1,6.433112E-3,-4.7822304E-2,-1.7206252E-1,-4.2280253E-2,8.9286946E-2,1.1558833E-1,4.7906745E-2,1.8836042E-2,-3.8373474E-2,-2.0272205E-2,5.349073E-2,-1.00929014E-1,-1.8428901E-2,-8.793668E-2,8.516826E-2,-5.5105705E-2,2.1550184E-2,-3.0811593E-2,6.2264795E-3,-4.0144853E-2,-1.5086162E-1],"split_indices":[27,19,20,45,50,50,0,28,0,20,53,27,5,56,20,20,6,50,28,5,5,62,20,50,45,0,28,20,28,0,0,20,27,0,28,0,62,60,19,19,13,15,0,0,0,0,0,0,0,0,0,0,0,0,0,0,0,0,0,0,0,0,0,0,0,0,0,0,0,0,0],"split_type":[0,0,0,0,0,0,0,0,0,0,0,0,0,0,0,0,0,0,0,0,0,0,0,0,0,0,0,0,0,0,0,0,0,0,0,0,0,0,0,0,0,0,0,0,0,0,0,0,0,0,0,0,0,0,0,0,0,0,0,0,0,0,0,0,0,0,0,0,0,0,0],"sum_hessian":[9.199582E2,3.6244482E2,5.5751337E2,1.9479407E2,1.6765074E2,5.4690924E2,1.0604133E1,1.9169817E2,3.0958893E0,4.8050446E1,1.196003E2,8.390075E1,4.6300845E2,6.617145E1,1.25526726E2,4.054378E1,7.5066643E0,2.032343E1,9.927687E1,3.9442238E1,4.4458515E1,4.4900906E2,1.3999399E1,6.6575093E0,5.951394E1,4.585748E0,1.2094098E2,3.335334E1,7.19044E0,3.4010358E0,4.1056285E0,8.3348675E0,1.1988562E1,3.3248408E0,9.5952034E1,4.341819E0,3.5100418E1,3.6357925E1,8.10059E0,1.6931386E2,2.7969522E2,9.116533E0,4.882865E0,3.5179935E0,3.139516E0,3.098805E1,2.8525888E1,7.155102E1,4.9389957E1,1.4790062E1,1.8563278E1,3.0173E0,4.17314E0,4.626864E0,3.7080038E0,8.594071E0,3.39449E0,8.253442E1,1.3417617E1,2.8415209E1,6.6852098E0,2.8929249E1,7.4286757E0,4.938166E0,3.1624243E0,1.637292E1,1.5294093E2,1.4520418E2,1.3449104E2,3.0987635E0,6.0177703E0],"tree_param":{"num_deleted":"0","num_feature":"64","num_nodes":"71","size_leaf_vector":"1"}},{"base_weights":[-7.01231E-3,2.9111636E-1,-9.38374E-2,3.4517166E-1,-4.9161434E-1,-5.9651416E-2,-6.266438E-1,6.25235E-1,1.960327E-1,-9.7824866E-1,2.2853004E-2,8.343062E-1,-7.4069664E-2,-1.3802946E-1,-3.6448765E-1,2.8893355E-1,7.2880125E-1,2.4647942E-1,-1.22377075E-1,-1.4175658E-1,-1.7130798E-2,-0E0,1.18261635E-1,3.6542395E-1,-9.6652515E-2,4.9167225E-1,-7.185744E-1,9.028008E-2,2.4453487E-2,7.848972E-1,-4.4796304E-3,2.966795E-1,-3.999571E-1,7.7005774E-1,2.4675194E-2,-7.503847E-1,-6.916244E-2,8.9370534E-2,-1.1257943E-2,-9.323429E-1,1.3214881E-2,3.196932E-2,-4.9175836E-2,1.4495178E-2,8.435918E-2,1.792172E-2,5.613751E-2,-8.598013E-2,3.3224303E-2,1.16376124E-1,2.6066845E-2,-4.6519443E-2,6.1569E-2,-9.432383E-2,4.6484065E-4,-1.1046832E-2,1.6314458E-2,-4.2894087E-3,-1.12507164E-1],"categories":[],"categories_nodes":[],"categories_segments":[],"categories_sizes":[],"default_left":[0,0,0,0,0,0,0,0,0,0,0,0,0,0,0,0,0,0,0,0,0,0,0,0,0,0,0,0,0,0,0,0,0,0,0,0,0,0,0,0,0,0,0,0,0,0,0,0,0,0,0,0,0,0,0,0,0,0,0],"id":9,"left_children":[1,3,5,7,9,11,13,15,17,19,-1,21,23,-1,25,27,29,31,-1,-1,-1,-1,-1,33,35,37,39,-1,41,43,-1,45,47,49,51,53,55,-1,-1,57,-1,-1,-1,-1,-1,-1,-1,-1,-1,-1,-1,-1,-1,-1,-1,-1,-1,-1,-1],"loss_changes":[2.3601515E1,8.852758E0,1.2770216E1,7.85639E0,5.0549326E0,8.564635E0,7.687952E0,1.9993553E0,9.344826E0,2.5660086E0,0E0,3.0595908E0,6.5196924E0,0E0,1.0341059E1,2.7282753E0,2.2729073E0,4.1369576E0,0E0,0E0,0E0,0E0,0E0,4.3212605E0,1.1097911E1,2.6392026E0,4.5210466E0,0E0,2.1792347E0,1.5316277E0,0E0,3.429369E0,3.445551E0,2.459484E0,5.677452E0,3.7345085E0,5.7798934E0,0E0,0E0,3.125042E0,0E0,0E0,0E0,0E0,0E0,0E0,0E0,0E0,0E0,0E0,0E0,0E0,0E0,0E0,0E0,0E0,0E0,0E0,0E0],"parents":[2147483647,0,0,1,1,2,2,3,3,4,4,5,5,6,6,7,7,8,8,9,9,11,11,12,12,14,14,15,15,16,16,17,17,23,23,24,24,25,25,26,26,28,28,29,29,31,31,32,32,33,33,34,34,35,35,36,36,39,39],"right_children":[2,4,6,8,10,12,14,16,18,20,-1,22,24,-1,26,28,30,32,-1,-1,-1,-1,-1,34,36,38,40,-1,42,44,-1,46,48,50,52,54,56,-1,-1,58,-1,-1,-1,-1,-1,-1,-1,-1,-1,-1,-1,-1,-1,-1,-1,-1,-1,-1,-1],"split_conditions":[-7.200361E-1,5.279377E-1,2.1627162E0,-1.7918931E-1,-1.7995083E-1,-1.4783688E0,1.4393154E0,1.7563328E-4,1.4518799E0,-7.94767E-1,2.2853004E-2,2.863046E-1,-1.1597886E0,-1.3802946E-1,2.055071E0,-1.6877066E0,2.3586832E-2,6.7753834E-1,-1.22377075E-1,-1.4175658E-1,-1.7130798E-2,-0E0,1.18261635E-1,-3.0860577E-2,-9.0925145E-1,1.9249284E-1,2.0065477E0,9.028008E-2,-8.157552E-1,-1.8006897E0,-4.4796304E-3,-6.37424E-1,-7.014858E-1,-1.2971619E0,2.5107232E-1,-5.6249106E-1,1.067778E0,8.9370534E-2,-1.1257943E-2,1.2139659E0,1.3214881E-2,3.196932E-2,-4.9175836E-2,1.4495178E-2,8.435918E-2,1.792172E-2,5.613751E-2,-8.598013E-2,3.3224303E-2,1.16376124E-1,2.6066845E-2,-4.6519443E-2,6.1569E-2,-9.432383E-2,4.6484065E-4,-1.1046832E-2,1.6314458E-2,-4.2894087E-3,-1.12507164E-1],"split_indices":[43,45,16,30,50,30,53,62,17,13,0,7,53,0,18,36,62,36,0,0,0,0,0,30,45,52,59,0,4,36,0,13,18,53,52,17,56,0,0,5,0,0,0,0,0,0,0,0,0,0,0,0,0,0,0,0,0,0,0],"split_type":[0,0,0,0,0,0,0,0,0,0,0,0,0,0,0,0,0,0,0,0,0,0,0,0,0,0,0,0,0,0,0,0,0,0,0,0,0,0,0,0,0,0,0,0,0,0,0,0,0,0,0,0,0,0,0,0,0,0,0],"sum_hessian":[9.104886E2,2.0456735E2,7.0592126E2,1.9199496E2,1.2572383E1,6.6458E2,4.1341225E1,6.537205E1,1.2662292E2,7.371547E0,5.200835E0,9.535911E0,6.550441E2,9.470024E0,3.18712E1,1.6511415E1,4.8860634E1,1.2314433E2,3.4785833E0,4.202803E0,3.168744E0,3.1046035E0,6.4313073E0,3.1055302E1,6.2398883E2,9.128374E0,2.2742825E1,4.13119E0,1.2380226E1,4.566405E1,3.1965828E0,1.14916084E2,8.228247E0,1.3486694E1,1.7568607E1,2.3972504E1,6.000163E2,5.2931166E0,3.8352582E0,1.8192936E1,4.5498886E0,8.241204E0,4.1390214E0,4.270978E0,4.1393074E1,8.101807E1,3.3898018E1,5.0309553E0,3.1972911E0,6.7718463E0,6.7148476E0,9.630194E0,7.9384127E0,1.9002092E1,4.9704127E0,5.1024585E2,8.977048E1,3.5501795E0,1.4642756E1],"tree_param":{"num_deleted":"0","num_feature":"64","num_nodes":"59","size_leaf_vector":"1"}},{"base_weights":[-3.7737824E-3,8.8006556E-2,-3.1335306E-1,2.9737312E-1,-5.894886E-4,-7.0255E-1,-2.2576953E-1,3.530871E-1,-3.7106815E-1,-2.597538E-1,9.509537E-2,-1.5829884E-3,-8.2926565E-1,2.6753023E-2,-3.5459608E-1,2.8555158E-1,7.7376676E-1,-1.0734468E0,2.7442944E-1,5.613317E-3,-4.7037837E-1,1.1885625E-1,-9.983456E-1,-2.5868982E-1,-9.5088065E-1,-2.039423E-1,4.6852133E-1,-2.8301165E-1,-1.1723949E0,5.0344425E-1,1.276447E-1,-1.8590814E-2,9.1506785E-1,-1.7013471E-1,-7.862877E-3,8.8762544E-2,-3.5197936E-2,1.834088E-1,-5.5716527E-1,-7.016649E-1,-4.4211004E-2,4.966972E-2,4.313711E-1,-4.0555548E-2,-1.3322574E-1,-4.9082026E-2,1.0176839E-3,-1.0720328E0,-2.2467544E-2,-9.3652986E-2,-6.723275E-2,9.643799E-1,-2.9274812E-1,2.468006E-3,-5.311385E-1,-1.4391337E-1,-4.8313003E-2,5.5558484E-2,-3.8747963E-2,-1.0659315E-2,4.0079664E-2,1.05558E-1,2.2522297E-2,5.680239E-2,-1.4655962E-2,-1.0528008E-1,1.9616352E-2,2.3076484E-2,-8.217475E-2,6.0308438E-2,-2.3851633E-2,-3.5359062E-2,1.4671455E-2,6.511546E-2,2.3568417E-3,-1.2332509E-1,-2.8967986E-2,-4.214027E-2,2.8398696E-2,1.7544545E-2,1.1873325E-1,-8.205684E-2,2.3558777E-2,-4.7082957E-2,4.4364348E-2,-1.0262871E-1,-3.3145305E-2],"categories":[],"categories_nodes":[],"categories_segments":[],"categories_sizes":[],"default_left":[0,0,0,0,0,0,0,0,0,0,0,0,0,0,0,0,0,0,0,0,0,0,0,0,0,0,0,0,0,0,0,0,0,0,0,0,0,0,0,0,0,0,0,0,0,0,0,0,0,0,0,0,0,0,0,0,0,0,0,0,0,0,0,0,0,0,0,0,0,0,0,0,0,0,0,0,0,0,0,0,0,0,0,0,0,0,0],"id":10,"left_children":[1,3,5,7,9,11,13,15,17,19,21,-1,23,25,27,29,31,33,35,37,39,41,43,45,47,49,51,53,55,57,59,-1,61,-1,-1,-1,-1,63,65,67,69,71,73,-1,-1,-1,-1,75,-1,-1,77,79,81,83,85,-1,-1,-1,-1,-1,-1,-1,-1,-1,-1,-1,-1,-1,-1,-1,-1,-1,-1,-1,-1,-1,-1,-1,-1,-1,-1,-1,-1,-1,-1,-1,-1],"loss_changes":[2.5844582E1,1.3028391E1,6.840929E0,7.901634E0,1.22681875E1,3.1688404E0,5.6223373E0,5.164833E0,7.812866E0,7.5110264E0,9.398436E0,0E0,1.8221855E0,6.0954547E0,6.1914206E0,5.6649103E0,3.761837E0,4.769603E0,3.9273062E0,6.0536847E0,7.2524796E0,7.5818596E0,8.0714226E-1,4.9375334E-1,1.8718395E0,3.7478862E0,8.110378E0,7.575224E0,7.190161E-1,3.4899483E0,6.42019E0,0E0,1.8518372E0,0E0,0E0,0E0,0E0,6.010386E0,5.6994357E0,5.6422462E0,3.5637348E0,1.1424098E1,5.6310215E0,0E0,0E0,0E0,0E0,2.1971588E0,0E0,0E0,4.375631E0,1.9002819E0,2.7050238E0,1.0684137E1,5.159542E0,0E0,0E0,0E0,0E0,0E0,0E0,0E0,0E0,0E0,0E0,0E0,0E0,0E0,0E0,0E0,0E0,0E0,0E0,0E0,0E0,0E0,0E0,0E0,0E0,0E0,0E0,0E0,0E0,0E0,0E0,0E0,0E0],"parents":[2147483647,0,0,1,1,2,2,3,3,4,4,5,5,6,6,7,7,8,8,9,9,10,10,12,12,13,13,14,14,15,15,16,16,17,17,18,18,19,19,20,20,21,21,22,22,23,23,24,24,25,25,26,26,27,27,28,28,29,29,30,30,32,32,37,37,38,38,39,39,40,40,41,41,42,42,47,47,50,50,51,51,52,52,53,53,54,54],"right_children":[2,4,6,8,10,12,14,16,18,20,22,-1,24,26,28,30,32,34,36,38,40,42,44,46,48,50,52,54,56,58,60,-1,62,-1,-1,-1,-1,64,66,68,70,72,74,-1,-1,-1,-1,76,-1,-1,78,80,82,84,86,-1,-1,-1,-1,-1,-1,-1,-1,-1,-1,-1,-1,-1,-1,-1,-1,-1,-1,-1,-1,-1,-1,-1,-1,-1,-1,-1,-1,-1,-1,-1,-1],"split_conditions":[4.6042135E-1,-6.357728E-1,-1.1209575E0,1.264769E-1,-7.861694E-1,9.2826796E-1,9.454027E-2,9.347763E-1,-7.253125E-2,1.4675426E-1,1.7572112E0,-1.5829884E-3,-1.5327027E0,1.6177675E0,3.7767167E0,-2.8872603E-1,-1.9540608E-1,-6.3348407E-1,-1.404323E-1,8.7018657E-1,-1.1313282E-1,1.7842951E0,9.553791E-1,-1.8980788E0,1.2371296E0,-9.48668E-1,2.026609E0,4.9169877E-1,1.4641575E0,-2.792615E-1,-4.8835656E-1,-1.8590814E-2,1.3882269E0,-1.7013471E-1,-7.862877E-3,8.8762544E-2,-3.5197936E-2,-3.0500606E-1,-3.1569692E-1,-5.5292976E-1,-4.5941645E-1,-5.1896834E-1,1.2116838E-1,-4.0555548E-2,-1.3322574E-1,-4.9082026E-2,1.0176839E-3,8.326615E-1,-2.2467544E-2,-9.3652986E-2,8.102724E-2,-5.2502906E-1,1.1514814E0,2.0008175E-2,4.059075E-1,-1.4391337E-1,-4.8313003E-2,5.5558484E-2,-3.8747963E-2,-1.0659315E-2,4.0079664E-2,1.05558E-1,2.2522297E-2,5.680239E-2,-1.4655962E-2,-1.0528008E-1,1.9616352E-2,2.3076484E-2,-8.217475E-2,6.0308438E-2,-2.3851633E-2,-3.5359062E-2,1.4671455E-2,6.511546E-2,2.3568417E-3,-1.2332509E-1,-2.8967986E-2,-4.214027E-2,2.8398696E-2,1.7544545E-2,1.1873325E-1,-8.205684E-2,2.3558777E-2,-4.7082957E-2,4.4364348E-2,-1.0262871E-1,-3.3145305E-2],"split_indices":[27,27,19,31,50,18,19,20,48,48,20,0,9,59,27,29,31,16,60,35,29,58,19,1,8,60,16,20,60,4,5,0,20,0,0,0,0,16,59,29,4,5,59,0,0,0,0,3,0,0,29,50,29,5,19,0,0,0,0,0,0,0,0,0,0,0,0,0,0,0,0,0,0,0,0,0,0,0,0,0,0,0,0,0,0,0,0],"split_type":[0,0,0,0,0,0,0,0,0,0,0,0,0,0,0,0,0,0,0,0,0,0,0,0,0,0,0,0,0,0,0,0,0,0,0,0,0,0,0,0,0,0,0,0,0,0,0,0,0,0,0,0,0,0,0,0,0,0,0,0,0,0,0,0,0,0,0,0,0,0,0,0,0,0,0,0,0,0,0,0,0,0,0,0,0,0,0],"sum_hessian":[9.0683105E2,6.997657E2,2.070654E2,2.077029E2,4.9206277E2,3.653789E1,1.7052751E2,1.9229652E2,1.5406369E1,1.3250388E2,3.595589E2,5.9899845E0,3.0547907E1,5.761268E1,1.12914825E2,1.6734724E2,2.4949272E1,7.1347985E0,8.27157E0,5.88531E1,7.365078E1,3.5287357E2,6.685319E0,6.0610304E0,2.4486877E1,3.8053032E1,1.9559645E1,1.05176735E2,7.738097E0,6.913193E1,9.8215324E1,3.0706878E0,2.1878586E1,3.8770108E0,3.2577877E0,4.0498133E0,4.2217574E0,4.5371067E1,1.3482035E1,4.7169937E1,2.648084E1,2.9012317E2,6.2750404E1,3.3147376E0,3.3705816E0,3.00931E0,3.0517206E0,2.0459692E1,4.0271845E0,4.9492784E0,3.3103756E1,1.1762565E1,7.79708E0,4.918012E1,5.5996613E1,4.6900764E0,3.048021E0,6.577135E1,3.3605776E0,5.300514E1,4.5210186E1,1.7615427E1,4.263158E0,2.0757496E1,2.461357E1,7.9721518E0,5.509883E0,5.181511E0,4.1988426E1,5.5092506E0,2.097159E1,5.556291E1,2.3456027E2,4.022783E1,2.2522573E1,1.6380116E1,4.0795765E0,1.652492E1,1.6578835E1,3.0842297E0,8.678334E0,3.718432E0,4.078648E0,2.358452E1,2.5595598E1,1.4759076E1,4.1237537E1],"tree_param":{"num_deleted":"0","num_feature":"64","num_nodes":"87","size_leaf_vector":"1"}},{"base_weights":[4.2080544E-3,9.334521E-2,-2.660569E-1,1.06456146E-1,-1.23531975E-1,-2.1983998E-1,-9.055589E-1,3.908642E-1,5.643564E-2,-5.0384563E-1,-1.05440244E-1,6.505797E-3,-1.1774247E0,-7.849866E-1,4.7984183E-1,2.1573517E-1,-8.404585E-2,6.2353533E-2,-5.850139E-1,-3.6497328E-1,4.642748E-2,-5.247305E-2,-1.3350427E-1,4.976644E-3,-1.4102323E-1,6.5311503E-1,2.0753366E-1,-1.7902015E-2,4.40722E-1,-1.1536665E0,-2.6467258E-2,-3.942313E-1,-1.1394198E0,7.735797E-2,-4.461416E-1,6.021444E-1,-7.076581E-2,7.2651826E-2,-1.6197046E-2,-2.6777336E-2,5.987897E-2,2.8114943E-2,-3.4265097E-2,6.09802E-2,1.3328388E-2,-2.2072358E-2,-1.548727E-1,5.460871E-2,-7.5403242E-3,-1.9462593E-2,-9.810251E-2,-1.4645955E-1,-2.1478714E-2,-8.522016E-3,-7.870773E-2,9.4100535E-2,-6.7760753E-3,2.8788498E-2,-2.8753573E-2],"categories":[],"categories_nodes":[],"categories_segments":[],"categories_sizes":[],"default_left":[0,0,0,0,0,0,0,0,0,0,0,0,0,0,0,0,0,0,0,0,0,0,0,0,0,0,0,0,0,0,0,0,0,0,0,0,0,0,0,0,0,0,0,0,0,0,0,0,0,0,0,0,0,0,0,0,0,0,0],"id":11,"left_children":[1,3,5,7,-1,9,11,13,15,17,19,-1,21,23,25,27,29,-1,31,33,35,-1,-1,-1,-1,37,39,41,43,45,47,49,51,-1,53,55,57,-1,-1,-1,-1,-1,-1,-1,-1,-1,-1,-1,-1,-1,-1,-1,-1,-1,-1,-1,-1,-1,-1],"loss_changes":[2.1744432E1,1.185607E1,6.301916E0,9.520069E0,0E0,6.713726E0,4.0444365E0,1.0842641E1,1.288918E1,5.8355894E0,6.0130982E0,0E0,3.0171204E-1,4.0465384E0,4.212124E0,1.4235485E1,1.8678652E1,0E0,5.3637695E0,5.5075526E0,6.354758E0,0E0,0E0,0E0,0E0,3.5686474E0,7.3031893E0,1.3031464E1,7.003977E0,5.195244E0,8.152996E0,4.8017225E0,3.6601791E0,0E0,6.390932E0,4.008223E0,6.311202E0,0E0,0E0,0E0,0E0,0E0,0E0,0E0,0E0,0E0,0E0,0E0,0E0,0E0,0E0,0E0,0E0,0E0,0E0,0E0,0E0,0E0,0E0],"parents":[2147483647,0,0,1,1,2,2,3,3,5,5,6,6,7,7,8,8,9,9,10,10,12,12,13,13,14,14,15,15,16,16,18,18,19,19,20,20,25,25,26,26,27,27,28,28,29,29,30,30,31,31,32,32,34,34,35,35,36,36],"right_children":[2,4,6,8,-1,10,12,14,16,18,20,-1,22,24,26,28,30,-1,32,34,36,-1,-1,-1,-1,38,40,42,44,46,48,50,52,-1,54,56,58,-1,-1,-1,-1,-1,-1,-1,-1,-1,-1,-1,-1,-1,-1,-1,-1,-1,-1,-1,-1,-1,-1],"split_conditions":[3.803622E-1,1.9365169E0,5.332453E-2,-1.0102469E0,-1.23531975E-1,2.8696257E-1,2.1398363E-1,-1.1290201E-1,-1.2327506E-1,-1.0779747E0,2.3025576E-2,6.505797E-3,1.7697872E0,-1.1844894E0,-1.702551E-2,-8.2271516E-1,-6.69642E-2,6.2353533E-2,1.5807953E0,-1.9681966E0,1.9127741E-2,-5.247305E-2,-1.3350427E-1,4.976644E-3,-1.4102323E-1,1.2096887E0,8.7883574E-1,-2.548921E-1,-3.352368E-2,-2.76651E-1,-3.328993E-1,3.5192782E-1,6.025712E-1,7.735797E-2,-1.7919081E-1,1.2317585E0,3.7332678E-1,7.2651826E-2,-1.6197046E-2,-2.6777336E-2,5.987897E-2,2.8114943E-2,-3.4265097E-2,6.09802E-2,1.3328388E-2,-2.2072358E-2,-1.548727E-1,5.460871E-2,-7.5403242E-3,-1.9462593E-2,-9.810251E-2,-1.4645955E-1,-2.1478714E-2,-8.522016E-3,-7.870773E-2,9.4100535E-2,-6.7760753E-3,2.8788498E-2,-2.8753573E-2],"split_indices":[27,20,62,17,0,6,59,20,20,59,28,0,12,7,31,20,20,0,17,20,62,0,0,0,0,50,36,29,59,36,29,28,29,0,18,13,31,0,0,0,0,0,0,0,0,0,0,0,0,0,0,0,0,0,0,0,0,0,0],"split_type":[0,0,0,0,0,0,0,0,0,0,0,0,0,0,0,0,0,0,0,0,0,0,0,0,0,0,0,0,0,0,0,0,0,0,0,0,0,0,0,0,0,0,0,0,0,0,0,0,0,0,0,0,0,0,0,0,0,0,0],"sum_hessian":[9.012948E2,6.785306E2,2.2276424E2,6.7288586E2,5.644729E0,2.0914912E2,1.3615109E1,9.9325386E1,5.735605E2,5.882741E1,1.5032172E2,3.0650644E0,1.0550045E1,6.3579607E0,9.296743E1,2.6886084E2,3.0469965E2,3.4194355E0,5.5407974E1,5.521602E1,9.51057E1,3.0176353E0,7.5324097E0,3.048473E0,3.309488E0,5.5736137E1,3.723129E1,1.3212834E2,1.367325E2,1.4503283E1,2.9019635E2,4.2629673E1,1.2778303E1,3.024773E0,5.2191246E1,1.5991432E1,7.9114265E1,5.134368E1,4.392455E0,1.6837147E1,2.0394142E1,6.869528E1,6.3433064E1,8.7372154E1,4.936034E1,4.8534956E0,9.649787E0,2.1889149E1,2.6830722E2,3.2930157E1,9.699515E0,8.94159E0,3.8367133E0,2.61022E1,2.6089045E1,1.0450037E1,5.541395E0,2.9506197E1,4.9608067E1],"tree_param":{"num_deleted":"0","num_feature":"64","num_nodes":"59","size_leaf_vector":"1"}},{"base_weights":[-1.5556632E-3,7.574582E-2,-2.391641E-1,1.5333965E-1,-8.285041E-2,-5.885465E-1,-1.617137E-1,-2.7166307E-1,1.9144264E-1,-4.1767937E-1,3.0158293E-2,3.3020858E-2,-6.7702985E-1,8.490422E-2,-2.9229322E-1,2.669284E-1,-7.750588E-1,3.6916134E-1,4.8532184E-2,6.2687926E-2,-5.3154254E-1,3.4850863E-1,-1.028228E-1,-9.6460384E-1,-2.6839414E-1,-5.309872E-3,9.965806E-2,-4.13343E-1,3.471671E-2,-4.976453E-1,9.5241815E-1,3.4901652E-2,-1.0852344E0,1.4973393E-1,6.1373705E-1,3.0520892E-1,-2.2178732E-1,-7.149245E-1,1.4107123E-1,6.2689173E-1,-5.5165625E-1,-3.1294194E-1,2.2260185E-1,-1.3516037E-1,-3.3032233E-1,1.2019885E-1,-7.840119E-1,3.0088535E-1,-2.340002E-1,-5.183181E-1,-2.8746676E-2,5.54394E-1,-4.4682768E-1,1.8745026E-2,-1.4018905E-1,4.6599604E-2,1.1705998E-1,-1.5423346E-1,-4.821789E-2,2.759989E-2,-9.236187E-2,2.9346341E-2,8.260959E-2,-3.6136873E-2,4.3362938E-2,-6.392505E-2,2.2254966E-3,2.506787E-2,-8.955287E-2,-4.756352E-2,8.425989E-2,8.543115E-2,-3.955392E-2,-1.4829104E-1,1.0255977E-2,8.017929E-2,-3.951482E-2,3.8248386E-2,-9.123233E-2,8.0850525E-3,-8.4307335E-2,7.293515E-2,-2.7843669E-2,-1.300634E-1,-7.780924E-3,-8.568416E-3,9.830754E-2,-8.289965E-2,1.0492399E-2,-6.55423E-2,1.7944923E-2,7.158569E-2,-4.468479E-2,1.0884732E-1,-4.1977237E-3,1.0195152E-2,-7.3173895E-2],"categories":[],"categories_nodes":[],"categories_segments":[],"categories_sizes":[],"default_left":[0,0,0,0,0,0,0,0,0,0,0,0,0,0,0,0,0,0,0,0,0,0,0,0,0,0,0,0,0,0,0,0,0,0,0,0,0,0,0,0,0,0,0,0,0,0,0,0,0,0,0,0,0,0,0,0,0,0,0,0,0,0,0,0,0,0,0,0,0,0,0,0,0,0,0,0,0,0,0,0,0,0,0,0,0,0,0,0,0,0,0,0,0,0,0,0,0],"id":12,"left_children":[1,3,5,7,9,11,13,15,17,19,21,-1,23,25,27,29,31,33,35,-1,37,39,41,43,45,47,-1,49,51,53,55,-1,57,59,61,63,65,67,69,71,73,75,77,-1,79,81,83,85,87,89,91,93,95,-1,-1,-1,-1,-1,-1,-1,-1,-1,-1,-1,-1,-1,-1,-1,-1,-1,-1,-1,-1,-1,-1,-1,-1,-1,-1,-1,-1,-1,-1,-1,-1,-1,-1,-1,-1,-1,-1,-1,-1,-1,-1,-1,-1],"loss_changes":[1.6618317E1,8.408812E0,5.842289E0,7.4692E0,8.533994E0,3.486003E0,5.95447E0,1.05395975E1,1.0647971E1,7.086524E0,7.1861134E0,0E0,3.9239178E0,5.370662E0,4.820471E0,1.0461212E1,7.409628E0,9.8915825E0,1.6391603E1,0E0,6.559779E0,1.2893707E1,8.234528E0,4.5349007E0,3.4997215E0,4.2063103E0,0E0,3.4919033E0,8.577391E0,6.303534E0,3.9605618E-1,0E0,3.4511147E0,1.3789349E1,5.6380424E0,1.0541268E1,1.1783708E1,7.4499416E0,5.55854E0,9.399907E0,7.7641096E0,6.973135E0,8.859717E0,0E0,2.1200466E0,2.7395003E0,2.4627728E0,6.910348E0,7.1398935E0,6.7697735E0,6.5748696E0,5.4167285E0,2.9063249E0,0E0,0E0,0E0,0E0,0E0,0E0,0E0,0E0,0E0,0E0,0E0,0E0,0E0,0E0,0E0,0E0,0E0,0E0,0E0,0E0,0E0,0E0,0E0,0E0,0E0,0E0,0E0,0E0,0E0,0E0,0E0,0E0,0E0,0E0,0E0,0E0,0E0,0E0,0E0,0E0,0E0,0E0,0E0,0E0],"parents":[2147483647,0,0,1,1,2,2,3,3,4,4,5,5,6,6,7,7,8,8,9,9,10,10,12,12,13,13,14,14,15,15,16,16,17,17,18,18,20,20,21,21,22,22,23,23,24,24,25,25,27,27,28,28,29,29,30,30,32,32,33,33,34,34,35,35,36,36,37,37,38,38,39,39,40,40,41,41,42,42,44,44,45,45,46,46,47,47,48,48,49,49,50,50,51,51,52,52],"right_children":[2,4,6,8,10,12,14,16,18,20,22,-1,24,26,28,30,32,34,36,-1,38,40,42,44,46,48,-1,50,52,54,56,-1,58,60,62,64,66,68,70,72,74,76,78,-1,80,82,84,86,88,90,92,94,96,-1,-1,-1,-1,-1,-1,-1,-1,-1,-1,-1,-1,-1,-1,-1,-1,-1,-1,-1,-1,-1,-1,-1,-1,-1,-1,-1,-1,-1,-1,-1,-1,-1,-1,-1,-1,-1,-1,-1,-1,-1,-1,-1,-1],"split_conditions":[3.803622E-1,6.523372E-1,-1.1209575E0,-1.6051397E0,-7.675165E-1,-4.580716E-1,9.454027E-2,-2.0393262E0,-1.2327506E-1,-1.3356265E0,-1.0192657E0,3.3020858E-2,1.526816E0,3.4597907E-2,1.4398283E0,-8.542262E-1,-1.2121654E0,-4.8173892E-1,-3.7468824E-1,6.2687926E-2,1.8192695E-1,1.3882269E0,2.409654E-1,-3.0368257E-1,2.8059622E-2,2.4268353E-1,9.965806E-2,1.6487404E0,6.545764E-1,-5.1438814E-1,-4.866307E-1,3.4901652E-2,5.7661074E-1,9.62378E-1,-3.721899E-1,-7.7452785E-1,-1.6012193E-1,-8.375698E-2,6.9776064E-1,2.069802E-1,1.6149522E0,-6.800413E-1,4.5916972E-1,-1.3516037E-1,1.983314E0,-2.2115755E0,2.495153E0,3.0010515E-1,1.0271955E0,7.728188E-1,2.5422927E-2,9.753599E-1,-3.664796E-1,1.8745026E-2,-1.4018905E-1,4.6599604E-2,1.1705998E-1,-1.5423346E-1,-4.821789E-2,2.759989E-2,-9.236187E-2,2.9346341E-2,8.260959E-2,-3.6136873E-2,4.3362938E-2,-6.392505E-2,2.2254966E-3,2.506787E-2,-8.955287E-2,-4.756352E-2,8.425989E-2,8.543115E-2,-3.955392E-2,-1.4829104E-1,1.0255977E-2,8.017929E-2,-3.951482E-2,3.8248386E-2,-9.123233E-2,8.0850525E-3,-8.4307335E-2,7.293515E-2,-2.7843669E-2,-1.300634E-1,-7.780924E-3,-8.568416E-3,9.830754E-2,-8.289965E-2,1.0492399E-2,-6.55423E-2,1.7944923E-2,7.158569E-2,-4.468479E-2,1.0884732E-1,-4.1977237E-3,1.0195152E-2,-7.3173895E-2],"split_indices":[27,19,19,20,50,29,19,20,20,53,17,0,59,19,60,4,59,35,17,0,59,20,10,46,62,5,0,42,59,29,46,0,53,15,45,13,29,30,42,30,20,42,18,0,53,19,18,13,53,17,62,19,50,0,0,0,0,0,0,0,0,0,0,0,0,0,0,0,0,0,0,0,0,0,0,0,0,0,0,0,0,0,0,0,0,0,0,0,0,0,0,0,0,0,0,0,0],"split_type":[0,0,0,0,0,0,0,0,0,0,0,0,0,0,0,0,0,0,0,0,0,0,0,0,0,0,0,0,0,0,0,0,0,0,0,0,0,0,0,0,0,0,0,0,0,0,0,0,0,0,0,0,0,0,0,0,0,0,0,0,0,0,0,0,0,0,0,0,0,0,0,0,0,0,0,0,0,0,0,0,0,0,0,0,0,0,0,0,0,0,0,0,0,0,0,0,0],"sum_hessian":[9.0189233E2,6.806997E2,2.2119264E2,4.5751996E2,2.2317978E2,3.870452E1,1.8248811E2,3.692314E1,4.205968E2,5.586084E1,1.6731894E2,3.0608249E0,3.56437E1,6.303035E1,1.1945776E2,1.7968952E1,1.8954187E1,1.8645041E2,2.3414641E2,4.9614725E0,5.089937E1,4.9043182E1,1.1827576E2,1.9978636E1,1.5665062E1,5.81597E1,4.8706517E0,8.7215034E1,3.224273E1,8.555058E0,9.413895E0,4.002289E0,1.4951899E1,9.934319E1,8.710721E1,1.20227516E2,1.13918884E2,4.0062473E1,1.0836895E1,3.7775486E1,1.1267696E1,7.208062E1,4.6195137E1,1.160773E1,8.370906E0,9.259571E0,6.4054914E0,2.4544252E1,3.3615444E1,6.8036766E1,1.9178268E1,1.5534477E1,1.6708252E1,5.2554274E0,3.2996304E0,4.0279617E0,5.3859324E0,7.524882E0,7.427017E0,8.9634926E1,9.708268E0,3.5866776E1,5.1240437E1,1.9002214E1,1.012253E2,4.158064E1,7.233825E1,6.1641326E0,3.389834E1,5.862596E0,4.974299E0,3.1116472E1,6.659013E0,4.189807E0,7.0778894E0,4.265782E0,6.7814835E1,4.114934E1,5.0457945E0,5.00484E0,3.366066E0,3.4337356E0,5.825835E0,3.1313925E0,3.274099E0,1.6131178E1,8.413074E0,1.1781533E1,2.1833912E1,5.7034096E1,1.1002672E1,6.5542874E0,1.26239805E1,7.8483877E0,7.6860895E0,5.8095045E0,1.0898747E1],"tree_param":{"num_deleted":"0","num_feature":"64","num_nodes":"97","size_leaf_vector":"1"}},{"base_weights":[5.7754884E-3,1.5429606E-1,-1.5104832E-1,3.4225214E-1,4.3643944E-2,-1.2837875E-1,-1.1116352E-1,3.7921447E-1,-8.60989E-2,3.3497834E-1,-6.654543E-2,-4.50884E-1,-6.540379E-2,-1.1280021E-1,4.3432844E-1,-5.906866E-2,3.931117E-1,-1.01879776E-1,8.1061864E-1,5.0791066E-2,-5.403984E-1,-4.1343936E-1,-8.189192E-3,4.3210772E-1,-1.0069922E-1,6.640314E-1,2.2915255E-1,4.718457E-1,-1.7672695E-1,3.9937567E-2,-3.35188E-1,1.1302091E-1,2.4587076E-2,-1.9577332E-1,-7.3729634E-1,-7.36802E-2,-6.606317E-1,1.431773E-1,-1.8290623E-1,-4.046419E-2,8.4290326E-2,-3.2432344E-2,7.1620904E-2,-5.1005263E-2,4.488669E-2,3.782654E-2,1.23024456E-1,-9.9126175E-2,7.645254E-2,-2.3333011E-2,2.204143E-2,5.3137876E-2,-4.5726955E-2,-7.18775E-2,1.5146019E-2,-4.8248164E-2,-1.1366242E-1,-3.910948E-2,9.260644E-2,1.0091771E-2,-1.01153456E-1,-3.5833996E-3,5.7581056E-2,-5.125974E-3,-5.6013998E-2],"categories":[],"categories_nodes":[],"categories_segments":[],"categories_sizes":[],"default_left":[0,0,0,0,0,0,0,0,0,0,0,0,0,0,0,0,0,0,0,0,0,0,0,0,0,0,0,0,0,0,0,0,0,0,0,0,0,0,0,0,0,0,0,0,0,0,0,0,0,0,0,0,0,0,0,0,0,0,0,0,0,0,0,0,0],"id":13,"left_children":[1,3,5,7,9,11,-1,13,-1,15,17,19,21,23,25,-1,27,29,31,-1,33,35,37,39,-1,41,43,45,47,49,51,-1,-1,53,55,57,59,61,63,-1,-1,-1,-1,-1,-1,-1,-1,-1,-1,-1,-1,-1,-1,-1,-1,-1,-1,-1,-1,-1,-1,-1,-1,-1,-1],"loss_changes":[2.0952568E1,9.561705E0,9.254709E0,7.8762054E0,9.438462E0,8.619448E0,0E0,4.5966415E0,0E0,4.554044E0,6.60736E0,6.2474756E0,7.119782E0,8.963552E0,6.8342915E0,0E0,3.5502968E0,6.8443556E0,1.0721583E0,0E0,4.118498E0,4.122205E0,8.236473E0,4.3146534E0,0E0,3.8853264E0,1.3387775E1,4.181465E0,8.350825E0,6.3863416E0,8.49645E0,0E0,0E0,4.6853933E0,3.3912926E0,7.473741E0,7.931341E0,1.2970584E1,7.1004376E0,0E0,0E0,0E0,0E0,0E0,0E0,0E0,0E0,0E0,0E0,0E0,0E0,0E0,0E0,0E0,0E0,0E0,0E0,0E0,0E0,0E0,0E0,0E0,0E0,0E0,0E0],"parents":[2147483647,0,0,1,1,2,2,3,3,4,4,5,5,7,7,9,9,10,10,11,11,12,12,13,13,14,14,16,16,17,17,18,18,20,20,21,21,22,22,23,23,25,25,26,26,27,27,28,28,29,29,30,30,33,33,34,34,35,35,36,36,37,37,38,38],"right_children":[2,4,6,8,10,12,-1,14,-1,16,18,20,22,24,26,-1,28,30,32,-1,34,36,38,40,-1,42,44,46,48,50,52,-1,-1,54,56,58,60,62,64,-1,-1,-1,-1,-1,-1,-1,-1,-1,-1,-1,-1,-1,-1,-1,-1,-1,-1,-1,-1,-1,-1,-1,-1,-1,-1],"split_conditions":[-2.354772E-1,-8.029161E-2,1.8490869E0,1.637091E0,-1.0102469E0,-1.1892252E0,-1.1116352E-1,-1.6584868E0,-8.60989E-2,-1.1290201E-1,6.958939E-1,3.8545975E-1,-1.0566361E0,-3.5960567E-1,-1.9753455E-1,-5.906866E-2,4.5991894E-2,-2.664629E-1,1.15246624E-1,5.0791066E-2,-4.9167743E-1,-1.2327506E-1,2.3522235E-2,3.43631E-1,-1.0069922E-1,-1.3904269E-1,-7.5428873E-1,-4.2369756E-1,-2.6388878E-1,-7.6352245E-1,-8.338744E-1,1.1302091E-1,2.4587076E-2,-1.0272125E0,1.6142179E0,1.0290936E0,-6.245615E-1,1.4843109E-1,1.4088141E0,-4.046419E-2,8.4290326E-2,-3.2432344E-2,7.1620904E-2,-5.1005263E-2,4.488669E-2,3.782654E-2,1.23024456E-1,-9.9126175E-2,7.645254E-2,-2.3333011E-2,2.204143E-2,5.3137876E-2,-4.5726955E-2,-7.18775E-2,1.5146019E-2,-4.8248164E-2,-1.1366242E-1,-3.910948E-2,9.260644E-2,1.0091771E-2,-1.01153456E-1,-3.5833996E-3,5.7581056E-2,-5.125974E-3,-5.6013998E-2],"split_indices":[27,19,20,15,17,19,0,20,0,20,17,16,50,29,59,0,62,17,15,0,31,20,62,17,0,62,13,45,50,45,45,0,0,20,17,5,17,29,27,0,0,0,0,0,0,0,0,0,0,0,0,0,0,0,0,0,0,0,0,0,0,0,0,0,0],"split_type":[0,0,0,0,0,0,0,0,0,0,0,0,0,0,0,0,0,0,0,0,0,0,0,0,0,0,0,0,0,0,0,0,0,0,0,0,0,0,0,0,0,0,0,0,0,0,0,0,0,0,0,0,0,0,0,0,0,0,0,0,0,0,0,0,0],"sum_hessian":[8.975631E2,4.6132108E2,4.3624203E2,1.6983643E2,2.9148465E2,4.2739343E2,8.84861E0,1.6551978E2,4.3166504E0,7.968076E1,2.1180388E2,6.8556496E1,3.5883694E2,1.6385109E1,1.4913466E2,4.065425E0,7.561533E1,2.045615E2,7.2423882E0,5.359487E0,6.319701E1,4.9536034E1,3.093009E2,1.0432574E1,5.952534E0,6.907667E1,8.005799E1,6.6741234E1,8.874105E0,1.2747531E2,7.7086174E1,3.87257E0,3.3698182E0,2.3888237E1,3.9308773E1,2.1578955E1,2.7957077E1,1.6551488E2,1.4378603E2,3.3600454E0,7.0725293E0,3.106211E0,6.597046E1,1.7936384E1,6.212161E1,6.086198E1,5.87925E0,4.7857523E0,4.0883527E0,5.0366405E1,7.710891E1,9.00371E0,6.8082466E1,9.21964E0,1.4668597E1,2.5497341E1,1.3811431E1,1.6916782E1,4.662174E0,8.953376E0,1.90037E1,1.1755854E2,4.795634E1,1.0762735E2,3.6158672E1],"tree_param":{"num_deleted":"0","num_feature":"64","num_nodes":"65","size_leaf_vector":"1"}},{"base_weights":[4.9838102E-3,2.4767137E-1,-5.874234E-2,9.695171E-2,2.0517765E-1,-3.0088905E-1,-8.6639E-3,3.011357E-1,-9.0654984E-2,1.7558305E-1,-3.735907E-1,-1.1366581E-1,3.079513E-3,2.3982131E-1,9.4189924E-1,-6.117232E-1,1.1543554E-1,4.339515E-1,-3.6838587E-2,-7.523765E-1,-2.1296513E-1,1.3806589E-1,-8.633216E-2,4.3157464E-1,2.6322177E-2,4.4101115E-2,1.0692785E-1,-1.2267636E0,2.1476684E-2,-9.535801E-2,2.8892502E-1,-2.1569623E-2,7.0557976E-1,1.0952315E-2,-9.4778234E-1,1.18881285E-1,-4.4180366E-1,-1.638686E-2,3.5493788E-1,4.302949E-1,-1.3509583E-1,7.718634E-2,2.2971032E-2,-1.5750382E-2,5.1410533E-2,-6.0774144E-2,-1.4921896E-1,5.3546775E-2,-1.5220231E-2,9.535055E-2,2.2624046E-2,-5.9896987E-2,-1.2121924E-1,3.8094632E-2,-6.8002336E-2,-5.7386477E-2,2.7141292E-2,3.2978147E-2,-1.2887329E-2,5.5608448E-2,1.3387464E-2,4.7023766E-4,8.978308E-2,-2.7774567E-2,2.1475868E-3],"categories":[],"categories_nodes":[],"categories_segments":[],"categories_sizes":[],"default_left":[0,0,0,0,0,0,0,0,0,0,0,0,0,0,0,0,0,0,0,0,0,0,0,0,0,0,0,0,0,0,0,0,0,0,0,0,0,0,0,0,0,0,0,0,0,0,0,0,0,0,0,0,0,0,0,0,0,0,0,0,0,0,0,0,0],"id":14,"left_children":[1,3,5,-1,7,9,11,13,15,17,19,-1,21,23,25,27,29,31,-1,33,35,37,39,41,43,-1,-1,45,-1,-1,47,-1,49,-1,51,53,55,57,59,61,63,-1,-1,-1,-1,-1,-1,-1,-1,-1,-1,-1,-1,-1,-1,-1,-1,-1,-1,-1,-1,-1,-1,-1,-1],"loss_changes":[1.3859794E1,5.402731E0,8.5586815E0,0E0,5.086641E0,4.278738E0,7.9125195E0,4.940177E0,4.8434277E0,2.4887369E0,6.16397E0,0E0,7.0577884E0,5.029039E0,9.596729E-2,6.8518114E0,6.1848364E0,2.2810645E0,0E0,5.3824635E0,5.8323207E0,7.8533297E0,8.873367E0,4.197174E0,5.50539E0,0E0,0E0,1.2121582E-1,0E0,0E0,3.2269957E0,0E0,6.9475985E-1,0E0,1.4301109E0,6.8241444E0,4.441948E0,5.3542275E0,4.1849537E0,5.943042E0,7.2176895E0,0E0,0E0,0E0,0E0,0E0,0E0,0E0,0E0,0E0,0E0,0E0,0E0,0E0,0E0,0E0,0E0,0E0,0E0,0E0,0E0,0E0,0E0,0E0,0E0],"parents":[2147483647,0,0,1,1,2,2,4,4,5,5,6,6,7,7,8,8,9,9,10,10,12,12,13,13,14,14,15,15,16,16,17,17,19,19,20,20,21,21,22,22,23,23,24,24,27,27,30,30,32,32,34,34,35,35,36,36,37,37,38,38,39,39,40,40],"right_children":[2,4,6,-1,8,10,12,14,16,18,20,-1,22,24,26,28,30,32,-1,34,36,38,40,42,44,-1,-1,46,-1,-1,48,-1,50,-1,52,54,56,58,60,62,64,-1,-1,-1,-1,-1,-1,-1,-1,-1,-1,-1,-1,-1,-1,-1,-1,-1,-1,-1,-1,-1,-1,-1,-1],"split_conditions":[-6.527084E-1,-1.4447398E0,-1.0566361E0,9.695171E-2,-2.219548E-1,-3.9161894E-1,-1.5322751E0,-4.037718E-1,-8.297622E-1,-2.0160604E-1,-1.9602372E-1,-1.1366581E-1,2.062324E-2,-2.8872603E-1,-2.2350882E-1,-6.245615E-1,-5.9237564E-1,-7.247786E-1,-3.6838587E-2,-6.622281E-1,6.940883E-2,1.6023213E-2,-9.399912E-1,-9.7296077E-1,-2.3220907E-1,4.4101115E-2,1.0692785E-1,-2.7429253E-1,2.1476684E-2,-9.535801E-2,7.315466E-2,-2.1569623E-2,-2.2459973E-1,1.0952315E-2,-2.5700396E-1,1.1185367E0,1.4765508E0,-6.969861E-1,9.209373E-2,-1.8203259E-1,3.0010515E-1,7.718634E-2,2.2971032E-2,-1.5750382E-2,5.1410533E-2,-6.0774144E-2,-1.4921896E-1,5.3546775E-2,-1.5220231E-2,9.535055E-2,2.2624046E-2,-5.9896987E-2,-1.2121924E-1,3.8094632E-2,-6.8002336E-2,-5.7386477E-2,2.7141292E-2,3.2978147E-2,-1.2887329E-2,5.5608448E-2,1.3387464E-2,4.7023766E-4,8.978308E-2,-2.7774567E-2,2.1475868E-3],"split_indices":[27,17,50,0,56,28,17,11,27,27,29,0,62,29,28,17,13,15,0,17,56,62,53,53,28,0,0,41,0,0,60,0,2,0,29,16,7,1,59,29,13,0,0,0,0,0,0,0,0,0,0,0,0,0,0,0,0,0,0,0,0,0,0,0,0],"split_type":[0,0,0,0,0,0,0,0,0,0,0,0,0,0,0,0,0,0,0,0,0,0,0,0,0,0,0,0,0,0,0,0,0,0,0,0,0,0,0,0,0,0,0,0,0,0,0,0,0,0,0,0,0,0,0,0,0,0,0,0,0,0,0,0,0],"sum_hessian":[8.930101E2,1.8544911E2,7.07561E2,8.9664345E0,1.7648268E2,1.200538E2,5.875072E2,1.3349994E2,4.298274E1,1.5523737E1,1.0453007E2,5.154191E0,5.8235297E2,1.2323772E2,1.0262224E1,1.1761809E1,3.122093E1,1.0786545E1,4.737192E0,2.9844477E1,7.468559E1,2.3226807E2,3.5008493E2,6.4140434E1,5.909728E1,3.1444964E0,7.1177278E0,6.535238E0,5.2265716E0,3.6510215E0,2.7569908E1,3.1324623E0,7.654083E0,5.5023527E0,2.4342125E1,3.0500013E1,4.4185577E1,1.3592664E2,9.634143E1,2.9342361E1,3.2074255E2,2.2646126E1,4.1494312E1,4.3264652E1,1.5832626E1,3.0615578E0,3.4736803E0,1.7693806E1,9.876103E0,4.255307E0,3.3987753E0,1.206688E1,1.2275244E1,2.3454544E1,7.0454683E0,3.756545E1,6.620126E0,3.264461E1,1.0328202E2,4.94127E1,4.692873E1,1.6000885E1,1.33414755E1,1.6776212E2,1.5298045E2],"tree_param":{"num_deleted":"0","num_feature":"64","num_nodes":"65","size_leaf_vector":"1"}},{"base_weights":[-2.682615E-3,2.4671245E-1,-4.58314E-2,2.9707235E-1,-7.415589E-2,2.5428839E-2,-2.3287441E-1,1.8422519E-1,6.467894E-1,5.0813224E-2,-7.745744E-1,-5.58341E-1,-8.621002E-2,9.576769E-2,6.386818E-1,7.7118033E-1,-0E0,3.647847E-2,1.1830119E-1,-1.402778E-1,-1.2885128E-1,-6.8276805E-1,6.626563E-2,-2.8085582E-2,-1.1273972E0,1.8708415E-1,-5.485685E-1,-1.7357646E-3,9.5695126E-1,-4.2202935E-4,8.822058E-1,1.6456127E-2,7.783886E-1,-7.9538666E-2,7.286976E-2,-9.516616E-1,-3.419117E-1,3.788851E-2,-6.917313E-1,-4.004709E-2,-1.620122E-1,9.750585E-3,6.8773344E-2,-1.0506523E-1,2.7111216E-2,1.16898455E-1,2.9904498E-2,1.005035E-1,1.0620177E-2,6.9669583E-3,-2.5778538E-2,1.649915E-2,1.1434846E-1,-6.1698616E-2,-1.4060129E-1,-7.203501E-2,1.8838286E-2,-1.273607E-2,4.0051766E-2,-9.904356E-2,5.695656E-3],"categories":[],"categories_nodes":[],"categories_segments":[],"categories_sizes":[],"default_left":[0,0,0,0,0,0,0,0,0,0,0,0,0,0,0,0,0,0,0,0,0,0,0,0,0,0,0,0,0,0,0,0,0,0,0,0,0,0,0,0,0,0,0,0,0,0,0,0,0,0,0,0,0,0,0,0,0,0,0,0,0],"id":15,"left_children":[1,3,5,7,-1,9,11,13,15,17,19,21,23,25,27,29,-1,31,-1,33,-1,35,-1,37,39,41,43,-1,45,-1,47,49,51,-1,-1,53,55,57,59,-1,-1,-1,-1,-1,-1,-1,-1,-1,-1,-1,-1,-1,-1,-1,-1,-1,-1,-1,-1,-1,-1],"loss_changes":[9.537687E0,6.678791E0,1.0122726E1,4.736211E0,0E0,1.1116096E1,9.885562E0,3.7335572E0,2.4695702E0,8.48841E0,5.1611433E0,1.0279612E1,8.675339E0,4.8856916E0,3.3087373E0,2.260497E0,0E0,7.7456803E0,0E0,5.561692E0,0E0,4.976408E0,0E0,6.1858664E0,1.8682222E0,3.1112483E0,4.595708E0,0E0,9.591446E-1,0E0,1.894001E0,7.5136547E0,2.7514238E0,0E0,0E0,3.8570461E0,5.779248E0,7.7136455E0,3.0067182E0,0E0,0E0,0E0,0E0,0E0,0E0,0E0,0E0,0E0,0E0,0E0,0E0,0E0,0E0,0E0,0E0,0E0,0E0,0E0,0E0,0E0,0E0],"parents":[2147483647,0,0,1,1,2,2,3,3,5,5,6,6,7,7,8,8,9,9,10,10,11,11,12,12,13,13,14,14,15,15,17,17,19,19,21,21,23,23,24,24,25,25,26,26,28,28,30,30,31,31,32,32,35,35,36,36,37,37,38,38],"right_children":[2,4,6,8,-1,10,12,14,16,18,20,22,24,26,28,30,-1,32,-1,34,-1,36,-1,38,40,42,44,-1,46,-1,48,50,52,-1,-1,54,56,58,60,-1,-1,-1,-1,-1,-1,-1,-1,-1,-1,-1,-1,-1,-1,-1,-1,-1,-1,-1,-1,-1,-1],"split_conditions":[-9.235064E-1,-1.07838474E-1,6.523372E-1,2.9381764E0,-7.415589E-2,3.164062E0,-3.242887E-1,-8.287506E-1,-8.150985E-1,4.0956044E0,2.3999126E0,1.255091E0,1.7992604E0,1.8516526E-1,-5.722579E-1,-2.0405016E0,-0E0,6.1737084E-1,1.1830119E-1,1.5399776E0,-1.2885128E-1,9.037621E-1,6.626563E-2,1.2140771E0,8.937717E-1,1.819441E-1,-1.1078619E0,-1.7357646E-3,5.63462E-1,-4.2202935E-4,-4.203604E-1,2.5931865E-2,-2.3569293E-1,-7.9538666E-2,7.286976E-2,2.601488E-1,-6.325192E-1,7.023077E-1,1.5858518E0,-4.004709E-2,-1.620122E-1,9.750585E-3,6.8773344E-2,-1.0506523E-1,2.7111216E-2,1.16898455E-1,2.9904498E-2,1.005035E-1,1.0620177E-2,6.9669583E-3,-2.5778538E-2,1.649915E-2,1.1434846E-1,-6.1698616E-2,-1.4060129E-1,-7.203501E-2,1.8838286E-2,-1.273607E-2,4.0051766E-2,-9.904356E-2,5.695656E-3],"split_indices":[53,17,19,55,0,5,5,16,16,29,17,19,28,30,5,43,0,19,0,29,0,19,0,59,19,3,17,0,3,0,10,62,17,0,0,41,17,56,15,0,0,0,0,0,0,0,0,0,0,0,0,0,0,0,0,0,0,0,0,0,0],"split_type":[0,0,0,0,0,0,0,0,0,0,0,0,0,0,0,0,0,0,0,0,0,0,0,0,0,0,0,0,0,0,0,0,0,0,0,0,0,0,0,0,0,0,0,0,0,0,0,0,0,0,0,0,0,0,0,0,0,0,0,0,0],"sum_hessian":[8.861279E2,1.2966187E2,7.5646606E2,1.2413674E2,5.5251174E0,5.480121E2,2.0845398E2,9.522284E1,2.8913908E1,5.3218713E2,1.5825002E1,6.3671097E1,1.4478288E2,8.090575E1,1.4317088E1,2.41945E1,4.7194085E0,5.266399E2,5.547238E0,7.7399592E0,8.085042E0,5.825706E1,5.4140368E0,1.3819135E2,6.591535E0,7.162042E1,9.285326E0,4.8830547E0,9.434033E0,3.038054E0,2.1156446E1,5.139272E2,1.2712672E1,4.5269303E0,3.213029E0,3.140055E1,2.685651E1,1.2641632E2,1.1775024E1,3.4772308E0,3.1143043E0,6.1933514E1,9.686909E0,5.659125E0,3.626201E0,6.432208E0,3.0018256E0,1.7899267E1,3.2571788E0,4.3134097E2,8.2586235E1,5.387296E0,7.3253756E0,1.9566154E1,1.1834397E1,1.557312E1,1.128339E1,8.709869E1,3.9317635E1,8.281588E0,3.4934373E0],"tree_param":{"num_deleted":"0","num_feature":"64","num_nodes":"61","size_leaf_vector":"1"}},{"base_weights":[-9.718717E-3,2.330219E-3,-1.0797269E0,6.4569786E-2,-1.8570484E-1,-5.03533E-2,-1.2509516E-1,2.1937077E-1,-1.7185694E-2,-5.314919E-1,-1.2030223E-1,-7.440477E-2,3.3442274E-1,-2.4472295E-1,9.1719724E-2,4.2986166E-2,-7.3295206E-1,-8.28331E-2,-8.232563E-1,1.2396163E-2,-1.2097082E-1,-2.5254974E-1,3.8801834E-1,-3.3282277E-1,5.3027815E-1,-1.529433E-2,3.29941E-1,4.890823E-2,-3.54322E-2,-8.8114136E-1,-2.5204876E-1,-4.930525E-1,-1.8059608E-2,-3.530335E-2,-1.0611651E-1,4.7053047E-2,-2.074076E-2,7.4943765E-3,-8.435802E-2,5.4222282E-2,1.7411407E-2,-1.9640869E-2,-1.1377777E-1,-1.3657461E-2,8.7446414E-2,1.6074693E-2,-2.4668068E-2,-8.917206E-2,3.8788598E-2,-1.06107436E-1,-2.5696753E-2,2.7981658E-2,-6.896093E-2,-8.321411E-2,2.9036955E-3,-1.4569958E-2,1.986772E-2],"categories":[],"categories_nodes":[],"categories_segments":[],"categories_sizes":[],"default_left":[0,0,0,0,0,0,0,0,0,0,0,0,0,0,0,0,0,0,0,0,0,0,0,0,0,0,0,0,0,0,0,0,0,0,0,0,0,0,0,0,0,0,0,0,0,0,0,0,0,0,0,0,0,0,0,0,0],"id":16,"left_children":[1,3,5,7,9,-1,-1,11,13,15,17,19,21,23,25,27,29,31,33,35,-1,37,39,41,43,45,47,-1,-1,49,51,53,55,-1,-1,-1,-1,-1,-1,-1,-1,-1,-1,-1,-1,-1,-1,-1,-1,-1,-1,-1,-1,-1,-1,-1,-1],"loss_changes":[1.1507412E1,1.0241121E1,1.7515469E-1,8.359136E0,4.7892165E0,0E0,0E0,7.7609615E0,1.0730061E1,4.0419073E0,4.6987033E0,6.51738E0,5.2816525E0,9.732075E0,7.4867854E0,1.8984799E0,1.4745598E0,4.6254745E0,5.003767E-1,6.2742796E0,0E0,2.8886335E0,4.8194294E0,1.355094E1,3.540721E0,8.289637E0,6.7318764E0,0E0,0E0,1.7131882E0,1.9892211E0,4.3175316E0,4.2711754E0,0E0,0E0,0E0,0E0,0E0,0E0,0E0,0E0,0E0,0E0,0E0,0E0,0E0,0E0,0E0,0E0,0E0,0E0,0E0,0E0,0E0,0E0,0E0,0E0],"parents":[2147483647,0,0,1,1,2,2,3,3,4,4,7,7,8,8,9,9,10,10,11,11,12,12,13,13,14,14,15,15,16,16,17,17,18,18,19,19,21,21,22,22,23,23,24,24,25,25,26,26,29,29,30,30,31,31,32,32],"right_children":[2,4,6,8,10,-1,-1,12,14,16,18,20,22,24,26,28,30,32,34,36,-1,38,40,42,44,46,48,-1,-1,50,52,54,56,-1,-1,-1,-1,-1,-1,-1,-1,-1,-1,-1,-1,-1,-1,-1,-1,-1,-1,-1,-1,-1,-1,-1,-1],"split_conditions":[1.9365169E0,3.803622E-1,1.8926612E-1,-1.3182744E-1,-1.2258567E0,-5.03533E-2,-1.2509516E-1,-9.973262E-1,-6.462728E-1,-8.153838E-1,1.7121906E0,2.7758174E-2,-1.5043052E0,9.2884886E-1,2.408551E-1,1.7635167E0,5.7977504E-1,-3.3199787E-1,7.0656914E-1,-1.0476113E-1,-1.2097082E-1,1.7612903E-1,2.3973894E-1,6.798956E-1,1.677292E-2,-4.371646E-1,6.427754E-3,4.890823E-2,-3.54322E-2,1.692629E0,2.233145E-1,5.003575E-1,9.1185486E-1,-3.530335E-2,-1.0611651E-1,4.7053047E-2,-2.074076E-2,7.4943765E-3,-8.435802E-2,5.4222282E-2,1.7411407E-2,-1.9640869E-2,-1.1377777E-1,-1.3657461E-2,8.7446414E-2,1.6074693E-2,-2.4668068E-2,-8.917206E-2,3.8788598E-2,-1.06107436E-1,-2.5696753E-2,2.7981658E-2,-6.896093E-2,-8.321411E-2,2.9036955E-3,-1.4569958E-2,1.986772E-2],"split_indices":[20,27,42,31,19,0,0,60,50,56,35,62,50,20,40,53,3,5,20,53,0,60,50,20,62,27,62,0,0,4,29,14,0,0,0,0,0,0,0,0,0,0,0,0,0,0,0,0,0,0,0,0,0,0,0,0,0],"split_type":[0,0,0,0,0,0,0,0,0,0,0,0,0,0,0,0,0,0,0,0,0,0,0,0,0,0,0,0,0,0,0,0,0,0,0,0,0,0,0,0,0,0,0,0,0,0,0,0,0,0,0,0,0,0,0,0,0],"sum_hessian":[8.830173E2,8.74079E2,8.938291E0,6.5760144E2,2.1647754E2,3.084234E0,5.8540564E0,2.2711241E2,4.3048904E2,3.305557E1,1.8342197E2,6.3768658E1,1.6334377E2,1.3924147E2,2.912476E2,8.657719E0,2.4397848E1,1.7533623E2,8.085747E0,6.0076443E1,3.6922145E0,1.3200083E1,1.5014368E2,1.2565676E2,1.3584704E1,2.013244E2,8.992317E1,4.088204E0,4.569515E0,1.7855509E1,6.5423393E0,2.279794E1,1.5253828E2,3.6922696E0,4.3934774E0,1.9255892E1,4.0820553E1,8.946677E0,4.253405E0,8.608342E1,6.406026E1,1.0861776E2,1.7039005E1,4.7310514E0,8.853653E0,1.1426412E2,8.706028E1,3.342292E0,8.658088E1,1.3192326E1,4.6631827E0,3.0125184E0,3.529821E0,1.3577347E1,9.220593E0,9.649808E1,5.6040207E1],"tree_param":{"num_deleted":"0","num_feature":"64","num_nodes":"57","size_leaf_vector":"1"}},{"base_weights":[1.2710496E-3,1.2470356E-2,-1.0577949E-1,5.362164E-2,-2.4856167E-1,6.527202E-2,-9.1532254E-1,-8.684753E-1,-1.8742469E-1,-7.613019E-2,1.2699273E-1,2.2346422E-3,-1.4437364E-1,-1.0429753E-1,-3.7031688E-2,-1.1069733E-1,-7.016198E-1,1.4720643E-2,-5.674549E-1,5.8378246E-2,3.8250262E-1,-4.0948936E-1,2.5861619E-2,1.069778E-2,-1.0705432E0,-3.6595997E-3,7.9932444E-2,-1.1168086E-1,-0E0,-3.210429E-3,3.034238E-2,-4.6317365E-2,4.8653558E-2,-5.73922E-2,5.886639E-2,2.6751721E-2,-2.4078181E-2,-5.8338195E-2,-1.2757888E-1],"categories":[],"categories_nodes":[],"categories_segments":[],"categories_sizes":[],"default_left":[0,0,0,0,0,0,0,0,0,0,0,0,0,0,0,0,0,0,0,0,0,0,0,0,0,0,0,0,0,0,0,0,0,0,0,0,0,0,0],"id":17,"left_children":[1,3,-1,5,7,9,11,13,15,17,19,-1,-1,-1,-1,21,23,25,27,29,31,33,35,-1,37,-1,-1,-1,-1,-1,-1,-1,-1,-1,-1,-1,-1,-1,-1],"loss_changes":[1.0324347E1,9.339772E0,0E0,8.471906E0,4.216311E0,6.515087E0,4.5879316E0,3.59138E-1,4.1465845E0,1.0171804E1,9.038896E0,0E0,0E0,0E0,0E0,3.9789355E0,4.331516E0,7.832677E0,1.1088554E1,9.147648E0,9.857466E0,5.3425174E0,4.3723946E0,0E0,3.58181E-2,0E0,0E0,0E0,0E0,0E0,0E0,0E0,0E0,0E0,0E0,0E0,0E0,0E0,0E0],"parents":[2147483647,0,0,1,1,3,3,4,4,5,5,6,6,7,7,8,8,9,9,10,10,15,15,16,16,17,17,18,18,19,19,20,20,21,21,22,22,24,24],"right_children":[2,4,-1,6,8,10,12,14,16,18,20,-1,-1,-1,-1,22,24,26,28,30,32,34,36,-1,38,-1,-1,-1,-1,-1,-1,-1,-1,-1,-1,-1,-1,-1,-1],"split_conditions":[1.9365169E0,1.0454688E0,-1.0577949E-1,1.7412957E0,-2.5692514E-1,-7.4886364E-1,-5.500166E-2,-5.825283E-1,4.058931E-2,9.5870924E-1,1.7842951E0,2.2346422E-3,-1.4437364E-1,-1.0429753E-1,-3.7031688E-2,3.098983E-1,1.1806339E0,1.1134359E0,1.1385363E0,3.4318927E-1,-1.5693478E-2,1.307112E0,1.2678825E0,1.069778E-2,2.6748654E-1,-3.6595997E-3,7.9932444E-2,-1.1168086E-1,-0E0,-3.210429E-3,3.034238E-2,-4.6317365E-2,4.8653558E-2,-5.73922E-2,5.886639E-2,2.6751721E-2,-2.4078181E-2,-5.8338195E-2,-1.2757888E-1],"split_indices":[20,27,0,50,30,50,43,37,62,19,58,0,0,0,0,13,43,5,19,10,62,3,16,0,28,0,0,0,0,0,0,0,0,0,0,0,0,0,0],"split_type":[0,0,0,0,0,0,0,0,0,0,0,0,0,0,0,0,0,0,0,0,0,0,0,0,0,0,0,0,0,0,0,0,0,0,0,0,0,0,0],"sum_hessian":[8.7716034E2,8.6905304E2,8.107328E0,7.517228E2,1.1733022E2,7.438152E2,7.907638E0,9.200311E0,1.0812991E2,2.254516E2,5.183635E2,3.1270897E0,4.780548E0,5.854972E0,3.345339E0,9.531667E1,1.2813236E1,1.9091586E2,3.453574E1,4.0990717E2,1.0845639E2,2.9501286E1,6.5815384E1,4.1519837E0,8.661253E0,1.7997086E2,1.0945004E1,1.7064568E1,1.747117E1,2.9970328E2,1.1020389E2,1.139707E1,9.7059326E1,2.5779633E1,3.7216542E0,3.472044E1,3.1094946E1,3.8507874E0,4.8104653E0],"tree_param":{"num_deleted":"0","num_feature":"64","num_nodes":"39","size_leaf_vector":"1"}},{"base_weights":[-4.1155154E-3,1.4619452E-2,-6.0252005E-1,2.5741138E-2,-9.5776767E-1,-9.283827E-1,-2.0371567E-1,3.598992E-2,-7.2861874E-1,-3.8687773E-2,-1.1514145E-1,-9.5522795E-3,-1.1385403E0,-7.412171E-2,1.2951519E-1,1.3308753E-1,-3.912736E-2,2.9938761E-2,-1.16096914E-1,-1.3284333E-1,-4.8650786E-2,4.926333E-2,-2.9376602E-2,-2.9930738E-1,1.8321837E-1,8.9250976E-1,-5.7695616E-2,9.821522E-3,-8.854634E-2,3.8553208E-2,5.3248773E-3,1.0580152E-1,4.598087E-2,-9.0806864E-2,-3.5288432E-3],"categories":[],"categories_nodes":[],"categories_segments":[],"categories_sizes":[],"default_left":[0,0,0,0,0,0,0,0,0,0,0,0,0,0,0,0,0,0,0,0,0,0,0,0,0,0,0,0,0,0,0,0,0,0,0],"id":18,"left_children":[1,3,5,7,9,11,13,15,17,-1,-1,-1,19,-1,21,23,25,-1,-1,-1,-1,-1,-1,27,29,31,33,-1,-1,-1,-1,-1,-1,-1,-1],"loss_changes":[1.0007091E1,9.237146E0,3.2194834E0,6.542627E0,4.680748E-1,2.304904E0,2.5940466E0,6.152169E0,5.4712663E0,0E0,0E0,0E0,5.820923E-1,0E0,1.5686572E0,8.016884E0,8.178695E0,0E0,0E0,0E0,0E0,0E0,0E0,9.110824E0,8.624956E0,2.2769451E-2,8.760741E0,0E0,0E0,0E0,0E0,0E0,0E0,0E0,0E0],"parents":[2147483647,0,0,1,1,2,2,3,3,4,4,5,5,6,6,7,7,8,8,12,12,14,14,15,15,16,16,23,23,24,24,25,25,26,26],"right_children":[2,4,6,8,10,12,14,16,18,-1,-1,-1,20,-1,22,24,26,-1,-1,-1,-1,-1,-1,28,30,32,34,-1,-1,-1,-1,-1,-1,-1,-1],"split_conditions":[2.7575023E0,1.9365169E0,2.8637114E-1,2.2715745E0,-5.716613E-1,4.9432635E-1,1.2096445E-1,9.454027E-2,4.8050424E-1,-3.8687773E-2,-1.1514145E-1,-9.5522795E-3,1.6866727E0,-7.412171E-2,3.0740266E0,-1.6584868E0,-1.9681966E0,2.9938761E-2,-1.16096914E-1,-1.3284333E-1,-4.8650786E-2,4.926333E-2,-2.9376602E-2,-1.9681966E0,-8.011767E-2,-6.8173933E-1,-1.5206735E0,9.821522E-3,-8.854634E-2,3.8553208E-2,5.3248773E-3,1.0580152E-1,4.598087E-2,-9.0806864E-2,-3.5288432E-3],"split_indices":[27,20,50,59,50,46,28,19,17,0,0,0,44,0,10,20,20,0,0,0,0,0,0,20,59,59,20,0,0,0,0,0,0,0,0],"split_type":[0,0,0,0,0,0,0,0,0,0,0,0,0,0,0,0,0,0,0,0,0,0,0,0,0,0,0,0,0,0,0,0,0,0,0],"sum_hessian":[8.8557684E2,8.594766E2,2.6100206E1,8.508217E2,8.654912E0,1.3494885E1,1.260532E1,8.404876E2,1.0334069E1,3.0822866E0,5.572625E0,3.1080325E0,1.0386852E1,4.4703693E0,8.134951E0,3.6685083E2,4.7363678E2,3.0820568E0,7.2520127E0,7.121965E0,3.2648878E0,4.4176283E0,3.7173228E0,3.7389442E1,3.294614E2,8.230502E0,4.6540628E2,2.2674059E1,1.4715383E1,1.27795784E2,2.0166562E2,4.7408915E0,3.4896107E0,1.0819199E1,4.545871E2],"tree_param":{"num_deleted":"0","num_feature":"64","num_nodes":"35","size_leaf_vector":"1"}},{"base_weights":[-2.2632733E-2,1.5986015E-1,-6.708258E-2,2.2443141E-1,-5.3288406E-1,-5.5360995E-2,-7.2889495E-1,2.8356957E-1,-4.252065E-1,1.5757117E-2,-9.6098185E-1,-1.4153853E-1,2.5666088E-2,-1.2031304E-1,-1.6138298E-2,1.374691E-1,5.6431884E-1,-7.87686E-1,3.0703863E-2,-4.838598E-2,-1.2489598E-1,1.17498845E-1,-2.2715251E-1,5.495828E-2,-5.2547306E-1,3.5304537E-1,-3.4270507E-1,6.2674725E-1,-2.7117262E-2,-1.46152545E-2,-1.0819073E-1,1.600621E-2,5.516056E-1,-1.9645585E-1,-8.6965567E-1,1.7833084E-2,5.1473415E-1,1.16788205E-2,-8.162568E-1,4.3592047E-2,-4.9297534E-2,7.176576E-2,-4.9855515E-2,7.654042E-2,2.836889E-2,3.2062657E-2,-1.9440021E-2,-4.8744198E-2,9.353694E-2,-2.2789266E-2,6.2301345E-2,-1.2267005E-1,-1.2398345E-2,5.377066E-3,-5.1463712E-2,-4.938018E-2,6.818766E-2,-1.3279273E-1,-3.5151564E-2],"categories":[],"categories_nodes":[],"categories_segments":[],"categories_sizes":[],"default_left":[0,0,0,0,0,0,0,0,0,0,0,0,0,0,0,0,0,0,0,0,0,0,0,0,0,0,0,0,0,0,0,0,0,0,0,0,0,0,0,0,0,0,0,0,0,0,0,0,0,0,0,0,0,0,0,0,0,0,0],"id":19,"left_children":[1,3,5,7,9,11,13,15,17,-1,19,21,23,-1,-1,25,27,29,-1,-1,-1,31,33,35,37,39,41,43,-1,-1,-1,45,47,49,51,53,55,-1,57,-1,-1,-1,-1,-1,-1,-1,-1,-1,-1,-1,-1,-1,-1,-1,-1,-1,-1,-1,-1],"loss_changes":[7.1095505E0,7.75948E0,5.3563414E0,6.1649404E0,4.6021385E0,4.866341E0,2.9130402E0,5.8113546E0,3.8510802E0,0E0,5.0806427E-1,7.5206485E0,5.7664895E0,0E0,0E0,1.0174453E1,2.7701511E0,1.4831891E0,0E0,0E0,0E0,3.643534E0,4.736679E0,5.7634706E0,3.5279136E0,4.952982E0,5.3685474E0,1.8739014E0,0E0,0E0,0E0,4.526283E0,6.775495E0,6.3903294E0,2.6819668E0,6.048486E0,4.6141305E0,0E0,2.367712E0,0E0,0E0,0E0,0E0,0E0,0E0,0E0,0E0,0E0,0E0,0E0,0E0,0E0,0E0,0E0,0E0,0E0,0E0,0E0,0E0],"parents":[2147483647,0,0,1,1,2,2,3,3,4,4,5,5,6,6,7,7,8,8,10,10,11,11,12,12,15,15,16,16,17,17,21,21,22,22,23,23,24,24,25,25,26,26,27,27,31,31,32,32,33,33,34,34,35,35,36,36,38,38],"right_children":[2,4,6,8,10,12,14,16,18,-1,20,22,24,-1,-1,26,28,30,-1,-1,-1,32,34,36,38,40,42,44,-1,-1,-1,46,48,50,52,54,56,-1,58,-1,-1,-1,-1,-1,-1,-1,-1,-1,-1,-1,-1,-1,-1,-1,-1,-1,-1,-1,-1],"split_conditions":[-8.240728E-1,6.038935E-1,3.73423E0,7.386644E-1,-4.2155847E-1,-1.4821364E-1,1.4510875E0,-6.8181956E-1,-7.305022E-1,1.5757117E-2,7.0543355E-1,-9.235064E-1,2.1571395E0,-1.2031304E-1,-1.6138298E-2,-2.8503025E-1,1.4641575E0,-8.666988E-1,3.0703863E-2,-4.838598E-2,-1.2489598E-1,5.444578E-2,8.37876E-1,1.8868943E0,1.0612304E0,2.1294673E-1,-1.7373072E0,2.3041251E-1,-2.7117262E-2,-1.46152545E-2,-1.0819073E-1,-1.1597886E0,-1.4871812E0,1.1571828E0,-1.89538E-1,2.1517923E0,-1.1762054E-1,1.16788205E-2,1.0491751E0,4.3592047E-2,-4.9297534E-2,7.176576E-2,-4.9855515E-2,7.654042E-2,2.836889E-2,3.2062657E-2,-1.9440021E-2,-4.8744198E-2,9.353694E-2,-2.2789266E-2,6.2301345E-2,-1.2267005E-1,-1.2398345E-2,5.377066E-3,-5.1463712E-2,-4.938018E-2,6.818766E-2,-1.3279273E-1,-3.5151564E-2],"split_indices":[43,16,13,35,59,16,28,13,18,0,15,53,59,0,0,29,60,14,0,0,0,59,30,59,45,16,42,50,0,0,0,53,17,3,17,18,29,0,53,0,0,0,0,0,0,0,0,0,0,0,0,0,0,0,0,0,0,0,0],"split_type":[0,0,0,0,0,0,0,0,0,0,0,0,0,0,0,0,0,0,0,0,0,0,0,0,0,0,0,0,0,0,0,0,0,0,0,0,0,0,0,0,0,0,0,0,0,0,0,0,0,0,0,0,0,0,0,0,0,0,0],"sum_hessian":[8.7526935E2,1.7048433E2,7.0478503E2,1.5669868E2,1.3785637E1,6.9373285E2,1.1052185E1,1.4428178E2,1.24169E1,5.4285555E0,8.357081E0,3.3641797E2,3.5731488E2,5.314752E0,5.737433E0,9.611163E1,4.817016E1,8.346185E0,4.0707154E0,4.2850513E0,4.0720305E0,8.318608E1,2.5323187E2,3.4030966E2,1.7005207E1,6.665817E1,2.945346E1,4.5164944E1,3.0052166E0,3.2016926E0,5.144492E0,6.844995E1,1.4736129E1,2.4307974E2,1.0152136E1,3.160464E2,2.426329E1,5.378984E0,1.1626224E1,6.1260147E1,5.3980246E0,3.2301228E0,2.6223337E1,3.108032E1,1.4084621E1,2.7944353E1,4.05056E1,3.8315094E0,1.090462E1,2.3491188E2,8.167852E0,6.3381057E0,3.81403E0,2.9708246E2,1.8963923E1,3.0865295E0,2.117676E1,4.5472617E0,7.078962E0],"tree_param":{"num_deleted":"0","num_feature":"64","num_nodes":"59","size_leaf_vector":"1"}},{"base_weights":[-7.979923E-3,5.475423E-2,-2.0960215E-1,1.9138631E-1,-1.5238604E-2,-2.9791036E-1,1.4526159E-1,2.6369712E-1,-1.5228972E-1,-1.1415131E-1,2.3901068E-1,-2.3489012E-1,-9.735488E-1,3.468945E-1,-5.98556E-1,-2.3230763E-1,3.1203303E-1,3.0850235E-1,-4.1551474E-1,4.2256787E-2,-3.3304346E-1,6.2288415E-2,4.4849834E-1,-3.3374134E-1,1.0262423E-1,-4.7578117E-1,-1.3280557E-1,4.624101E-1,-4.6308056E-2,-6.306806E-4,-9.025756E-2,-4.5859614E-1,5.3681295E-2,5.034788E-1,8.391181E-2,7.25729E-1,-2.8019467E-2,-6.729547E-1,4.434687E-2,-4.91912E-3,7.099013E-1,-3.9514863E-1,4.6288165E-1,2.3610806E-1,-2.855163E-1,6.2577546E-1,-1.7395332E-1,-4.105602E-2,-4.634931E-1,8.802034E-1,-9.767266E-2,-8.09544E-2,-3.168373E-4,-1.6043594E-2,6.18191E-1,-8.721848E-2,1.8565033E-2,2.2672886E-2,6.324965E-2,-4.171701E-2,2.0861065E-2,8.740117E-3,1.043883E-1,-3.9997175E-2,-1.377639E-1,7.0592663E-3,-4.9799617E-2,9.564599E-2,1.0167009E-2,-4.5666564E-2,5.3615887E-2,-7.383199E-4,9.5555164E-2,-5.6078978E-2,3.7009787E-2,-1.0643522E-1,2.0921422E-2,8.925537E-2,-0E0,4.0917758E-2,-8.296489E-2,3.352065E-2,-4.454757E-2,-6.613849E-2,-1.565667E-2,1.1695614E-1,3.536921E-2,6.6021206E-3,-7.8191444E-2,7.416287E-2,7.6264204E-3],"categories":[],"categories_nodes":[],"categories_segments":[],"categories_sizes":[],"default_left":[0,0,0,0,0,0,0,0,0,0,0,0,0,0,0,0,0,0,0,0,0,0,0,0,0,0,0,0,0,0,0,0,0,0,0,0,0,0,0,0,0,0,0,0,0,0,0,0,0,0,0,0,0,0,0,0,0,0,0,0,0,0,0,0,0,0,0,0,0,0,0,0,0,0,0,0,0,0,0,0,0,0,0,0,0,0,0,0,0,0,0],"id":20,"left_children":[1,3,5,7,9,11,13,15,17,19,21,23,25,27,29,31,33,35,37,39,41,43,45,47,49,51,-1,53,-1,-1,-1,55,-1,57,59,61,-1,63,-1,65,67,69,71,73,75,77,79,81,83,85,87,-1,-1,-1,89,-1,-1,-1,-1,-1,-1,-1,-1,-1,-1,-1,-1,-1,-1,-1,-1,-1,-1,-1,-1,-1,-1,-1,-1,-1,-1,-1,-1,-1,-1,-1,-1,-1,-1,-1,-1],"loss_changes":[1.104978E1,6.3808064E0,6.557664E0,5.6639338E0,1.1085826E1,6.7449627E0,6.4474063E0,4.5684223E0,4.9484076E0,1.0926559E1,4.487083E0,5.1906185E0,1.6162491E0,3.3580813E0,1.5544877E0,3.1991584E0,7.3750496E0,3.8958201E0,6.0268207E0,5.933272E0,6.743577E0,4.1928306E0,6.3352833E0,4.4674873E0,5.6760187E0,1.0834439E0,0E0,3.057416E0,0E0,0E0,0E0,3.9034371E0,0E0,3.0782547E0,5.0366707E0,1.6375751E0,0E0,3.1835546E0,0E0,6.5789533E0,1.6601129E0,7.335289E0,2.4095936E0,5.1315255E0,9.1809435E0,7.297798E0,5.380734E0,5.947087E0,4.8218803E0,5.6915903E-1,3.3645093E0,0E0,0E0,0E0,1.4902458E0,0E0,0E0,0E0,0E0,0E0,0E0,0E0,0E0,0E0,0E0,0E0,0E0,0E0,0E0,0E0,0E0,0E0,0E0,0E0,0E0,0E0,0E0,0E0,0E0,0E0,0E0,0E0,0E0,0E0,0E0,0E0,0E0,0E0,0E0,0E0,0E0],"parents":[2147483647,0,0,1,1,2,2,3,3,4,4,5,5,6,6,7,7,8,8,9,9,10,10,11,11,12,12,13,13,14,14,15,15,16,16,17,17,18,18,19,19,20,20,21,21,22,22,23,23,24,24,25,25,27,27,31,31,33,33,34,34,35,35,37,37,39,39,40,40,41,41,42,42,43,43,44,44,45,45,46,46,47,47,48,48,49,49,50,50,54,54],"right_children":[2,4,6,8,10,12,14,16,18,20,22,24,26,28,30,32,34,36,38,40,42,44,46,48,50,52,-1,54,-1,-1,-1,56,-1,58,60,62,-1,64,-1,66,68,70,72,74,76,78,80,82,84,86,88,-1,-1,-1,90,-1,-1,-1,-1,-1,-1,-1,-1,-1,-1,-1,-1,-1,-1,-1,-1,-1,-1,-1,-1,-1,-1,-1,-1,-1,-1,-1,-1,-1,-1,-1,-1,-1,-1,-1,-1],"split_conditions":[4.4348577E-1,-1.3414407E-1,1.6878449E0,4.4941998E-1,2.408551E-1,2.8776577E0,2.2093248E0,-2.956207E-2,-8.0604804E-1,-4.371646E-1,8.426594E-2,1.307112E0,1.7104207E0,1.496104E0,2.2298824E-2,-2.7225682E-1,1.8671654E-2,-9.35008E-1,-6.814254E-1,7.2702326E-2,7.066203E-1,3.4943977E-1,1.0530483E0,-1.9853508E-1,8.710336E-1,1.3925675E0,-1.3280557E-1,5.6601727E-1,-4.6308056E-2,-6.306806E-4,-9.025756E-2,-2.241697E-1,5.3681295E-2,-6.497845E-1,-1.0849402E0,-1.742437E-1,-2.8019467E-2,-1.721766E-1,4.434687E-2,-3.811269E-1,-2.0922321E-1,2.9678142E-1,-1.7510416E-1,2.7570004E-2,6.2358475E-1,6.724863E-1,2.4443239E-1,9.114865E-2,7.508761E-2,1.3023309E0,3.7767167E0,-8.09544E-2,-3.168373E-4,-1.6043594E-2,1.3150024E0,-8.721848E-2,1.8565033E-2,2.2672886E-2,6.324965E-2,-4.171701E-2,2.0861065E-2,8.740117E-3,1.043883E-1,-3.9997175E-2,-1.377639E-1,7.0592663E-3,-4.9799617E-2,9.564599E-2,1.0167009E-2,-4.5666564E-2,5.3615887E-2,-7.383199E-4,9.5555164E-2,-5.6078978E-2,3.7009787E-2,-1.0643522E-1,2.0921422E-2,8.925537E-2,-0E0,4.0917758E-2,-8.296489E-2,3.352065E-2,-4.454757E-2,-6.613849E-2,-1.565667E-2,1.1695614E-1,3.536921E-2,6.6021206E-3,-7.8191444E-2,7.416287E-2,7.6264204E-3],"split_indices":[27,31,59,45,40,13,59,62,8,27,59,3,43,46,62,7,62,3,35,16,8,20,59,18,4,7,0,43,0,0,0,60,0,14,7,43,0,20,0,16,20,45,16,30,20,20,30,30,29,35,27,0,0,0,35,0,0,0,0,0,0,0,0,0,0,0,0,0,0,0,0,0,0,0,0,0,0,0,0,0,0,0,0,0,0,0,0,0,0,0,0],"split_type":[0,0,0,0,0,0,0,0,0,0,0,0,0,0,0,0,0,0,0,0,0,0,0,0,0,0,0,0,0,0,0,0,0,0,0,0,0,0,0,0,0,0,0,0,0,0,0,0,0,0,0,0,0,0,0,0,0,0,0,0,0,0,0,0,0,0,0,0,0,0,0,0,0,0,0,0,0,0,0,0,0,0,0,0,0,0,0,0,0,0,0],"sum_hessian":[8.704655E2,6.640735E2,2.0639203E2,2.24847E2,4.392265E2,1.6561969E2,4.0772343E1,1.861946E2,3.86524E1,3.1688892E2,1.22337585E2,1.5285754E2,1.2762141E1,3.2602562E1,8.169781E0,1.6011871E1,1.7018272E2,1.3851886E1,2.4800514E1,1.8502821E2,1.318607E2,6.732088E1,5.5016705E1,1.1846807E2,3.4389473E1,6.3999977E0,6.362143E0,2.9016853E1,3.585708E0,3.2290537E0,4.9407268E0,1.2784276E1,3.227596E0,9.163479E1,7.854794E1,8.06973E0,5.782156E0,1.933788E1,5.462635E0,1.7360416E2,1.1424057E1,1.2290012E2,8.960586E0,4.5293545E1,2.2027336E1,4.294195E1,1.2074751E1,3.7028587E1,8.143948E1,6.4509177E0,2.7938555E1,3.2091613E0,3.1908367E0,5.671031E0,2.3345823E1,7.6649814E0,5.1192946E0,3.0259323E1,6.137547E1,1.5025017E1,6.3522923E1,3.2127864E0,4.856943E0,1.5170557E1,4.1673217E0,1.511157E2,2.2488438E1,7.604489E0,3.819568E0,1.1586383E2,7.0362954E0,4.9846554E0,3.9759307E0,5.953536E0,